{"learner":{"attributes":{},"feature_names":["FixedWinClose_Reference","region_trainer_placings","track_rider_placings","jockey_trainer_placings","region_trainer_wins"],"feature_types":["float","int","int","int","int"],"gradient_booster":{"model":{"gbtree_model_param":{"num_parallel_tree":"1","num_trees":"300"},"iteration_indptr":[0,3,6,9,12,15,18,21,24,27,30,33,36,39,42,45,48,51,54,57,60,63,66,69,72,75,78,81,84,87,90,93,96,99,102,105,108,111,114,117,120,123,126,129,132,135,138,141,144,147,150,153,156,159,162,165,168,171,174,177,180,183,186,189,192,195,198,201,204,207,210,213,216,219,222,225,228,231,234,237,240,243,246,249,252,255,258,261,264,267,270,273,276,279,282,285,288,291,294,297,300],"tree_info":[0,1,2,0,1,2,0,1,2,0,1,2,0,1,2,0,1,2,0,1,2,0,1,2,0,1,2,0,1,2,0,1,2,0,1,2,0,1,2,0,1,2,0,1,2,0,1,2,0,1,2,0,1,2,0,1,2,0,1,2,0,1,2,0,1,2,0,1,2,0,1,2,0,1,2,0,1,2,0,1,2,0,1,2,0,1,2,0,1,2,0,1,2,0,1,2,0,1,2,0,1,2,0,1,2,0,1,2,0,1,2,0,1,2,0,1,2,0,1,2,0,1,2,0,1,2,0,1,2,0,1,2,0,1,2,0,1,2,0,1,2,0,1,2,0,1,2,0,1,2,0,1,2,0,1,2,0,1,2,0,1,2,0,1,2,0,1,2,0,1,2,0,1,2,0,1,2,0,1,2,0,1,2,0,1,2,0,1,2,0,1,2,0,1,2,0,1,2,0,1,2,0,1,2,0,1,2,0,1,2,0,1,2,0,1,2,0,1,2,0,1,2,0,1,2,0,1,2,0,1,2,0,1,2,0,1,2,0,1,2,0,1,2,0,1,2,0,1,2,0,1,2,0,1,2,0,1,2,0,1,2,0,1,2,0,1,2,0,1,2,0,1,2,0,1,2,0,1,2,0,1,2,0,1,2,0,1,2,0,1,2,0,1,2,0,1,2,0,1,2],"trees":[{"base_weights":[-1.8699175E-1,1.2835513E-1,-3.5058364E-1,5.0726914E-1,3.0127326E-2,-2.5989583E-1,-4.7466943E-1,8.2987094E-1,4.3845615E-1,1.5065157E-1,-3.882407E-2,-1.7453292E-1,-3.0465993E-1,-4.347631E-1,-5.476119E-1,9.5909375E-1,7.5877047E-1,5.4806507E-1,3.8173366E-1,1.996299E-1,1.16077624E-1,3.671702E-2,-5.7157885E-2,-1.4152366E-1,-2.0173761E-1,-2.883056E-1,-3.3626527E-1,-4.18126E-1,-4.6288428E-1,-5.2942395E-1,-6.1854416E-1,7.2328764E-1,1.0218978E0,6.821994E-1,7.978227E-1,5.862726E-1,4.4920555E-1,3.1834194E-1,4.139584E-1,1.6378158E-1,3.033273E-1,1.3566178E-1,3.5058387E-2,1.9482257E-2,1.5599234E-1,-4.871924E-2,-1.5343793E-1,-1.5979478E-1,-7.952964E-2,-1.7885351E-1,-2.3948452E-1,-2.9039353E-1,-1.5837568E-1,-3.392327E-1,-2.2919047E-1,-4.1499573E-1,-4.9297503E-1,-4.4318852E-1,-4.950049E-1,-5.312967E-1,-2.5352117E-1,-6.1164224E-1,-7.3209554E-2,8.275862E-2,4.2477872E-2,2.3999998E-2,1.0304027E-1,7.4267104E-2,2.9813662E-2,8.3174E-2,6.341463E-2,6.531148E-2,5.5752214E-2,-6.7415773E-3,4.702053E-2,3.496332E-2,2.1595834E-2,5.0346415E-2,3.4982715E-2,1.6958274E-2,-3.4883726E-2,4.9924355E-2,2.6232556E-2,1.1484034E-2,2.4915822E-2,7.1942003E-4,2.6726056E-2,2.9509084E-3,-2.6829273E-2,2.0993223E-2,-1.2840472E-2,-8.744518E-3,-2.6852114E-3,-1.6962728E-2,2.675159E-2,-1.5775422E-2,-4.513275E-2,-3.7610077E-3,-2.0203607E-2,-1.7421652E-2,-3.1147545E-2,-2.4801819E-2,3.934422E-3,-2.7316237E-2,-3.006962E-2,-3.67589E-2,-8.502029E-3,-3.2517012E-2,-3.6481608E-2,5.454545E-2,-2.5674095E-2,-4.1188166E-2,-4.8785053E-2,-6.087592E-2,-4.058273E-2,-4.4875186E-2,-3.0434787E-2,-5.1851388E-2,-3.707866E-2,-5.15369E-2,-5.4279E-2,-3.134329E-2,4.285714E-2,-6.145669E-2,-1.5789477E-2],"categories":[],"categories_nodes":[],"categories_segments":[],"categories_sizes":[],"default_left":[0,0,0,0,0,0,0,0,0,0,0,0,0,0,0,0,0,0,0,0,0,0,0,0,0,0,0,0,0,0,0,0,0,0,0,0,0,0,0,0,0,0,0,0,0,0,0,0,0,0,0,0,0,0,0,0,0,0,0,0,0,0,0,0,0,0,0,0,0,0,0,0,0,0,0,0,0,0,0,0,0,0,0,0,0,0,0,0,0,0,0,0,0,0,0,0,0,0,0,0,0,0,0,0,0,0,0,0,0,0,0,0,0,0,0,0,0,0,0,0,0,0,0,0,0],"id":0,"left_children":[1,3,5,7,9,11,13,15,17,19,21,23,25,27,29,31,33,35,37,39,41,43,45,47,49,51,53,55,57,59,61,63,65,67,69,71,73,75,77,79,81,83,85,87,89,91,93,95,97,99,101,103,105,107,109,111,113,115,117,119,121,123,-1,-1,-1,-1,-1,-1,-1,-1,-1,-1,-1,-1,-1,-1,-1,-1,-1,-1,-1,-1,-1,-1,-1,-1,-1,-1,-1,-1,-1,-1,-1,-1,-1,-1,-1,-1,-1,-1,-1,-1,-1,-1,-1,-1,-1,-1,-1,-1,-1,-1,-1,-1,-1,-1,-1,-1,-1,-1,-1,-1,-1,-1,-1],"loss_changes":[2.125003E3,5.2368097E2,3.0507593E2,6.3937256E1,9.287177E1,5.9831177E1,3.3093994E1,3.9407043E0,1.4646698E1,6.8634033E0,9.847754E0,4.814804E0,5.2163086E0,3.2713623E0,4.8914795E0,1.8755798E0,4.501648E-1,2.8058014E0,3.091507E0,6.200882E0,3.7816238E0,2.852303E0,4.6406803E0,2.7512093E0,2.5091324E0,1.7935181E0,1.0340881E0,8.881836E-1,1.5163574E0,1.5324707E0,1.9464111E-1,9.1111755E-1,6.6374207E-1,2.5475044E0,6.623993E-1,7.5582886E-1,2.5353851E0,1.6420403E0,5.8095245E0,3.7813377E0,3.3294296E0,4.512066E0,3.012436E0,3.5131214E0,2.7149258E0,4.4531765E0,3.1840496E0,1.0493736E0,2.8551104E0,1.079258E0,2.6559486E0,1.102417E0,1.6483831E0,1.1055908E0,2.219685E0,8.1604004E-1,1.5882645E0,1.1844788E0,2.8282318E0,3.0682373E-1,1.1014746E0,9.364624E-1,0E0,0E0,0E0,0E0,0E0,0E0,0E0,0E0,0E0,0E0,0E0,0E0,0E0,0E0,0E0,0E0,0E0,0E0,0E0,0E0,0E0,0E0,0E0,0E0,0E0,0E0,0E0,0E0,0E0,0E0,0E0,0E0,0E0,0E0,0E0,0E0,0E0,0E0,0E0,0E0,0E0,0E0,0E0,0E0,0E0,0E0,0E0,0E0,0E0,0E0,0E0,0E0,0E0,0E0,0E0,0E0,0E0,0E0,0E0,0E0,0E0,0E0,0E0],"parents":[2147483647,0,0,1,1,2,2,3,3,4,4,5,5,6,6,7,7,8,8,9,9,10,10,11,11,12,12,13,13,14,14,15,15,16,16,17,17,18,18,19,19,20,20,21,21,22,22,23,23,24,24,25,25,26,26,27,27,28,28,29,29,30,30,31,31,32,32,33,33,34,34,35,35,36,36,37,37,38,38,39,39,40,40,41,41,42,42,43,43,44,44,45,45,46,46,47,47,48,48,49,49,50,50,51,51,52,52,53,53,54,54,55,55,56,56,57,57,58,58,59,59,60,60,61,61],"right_children":[2,4,6,8,10,12,14,16,18,20,22,24,26,28,30,32,34,36,38,40,42,44,46,48,50,52,54,56,58,60,62,64,66,68,70,72,74,76,78,80,82,84,86,88,90,92,94,96,98,100,102,104,106,108,110,112,114,116,118,120,122,124,-1,-1,-1,-1,-1,-1,-1,-1,-1,-1,-1,-1,-1,-1,-1,-1,-1,-1,-1,-1,-1,-1,-1,-1,-1,-1,-1,-1,-1,-1,-1,-1,-1,-1,-1,-1,-1,-1,-1,-1,-1,-1,-1,-1,-1,-1,-1,-1,-1,-1,-1,-1,-1,-1,-1,-1,-1,-1,-1,-1,-1,-1,-1],"split_conditions":[4.8E0,2.3E0,1.2E1,1.55E0,3.2E0,6.5E0,2.6E1,1.35E0,1.85E0,2.7E0,3.5E0,5.5E0,9.5E0,1.8E1,7.1E1,1E0,8E0,3.7E1,3.4E1,2.49E2,4.6E1,7.6E1,9.12E2,3.1E1,1.3E1,3.01E2,1.95E2,1.26E2,1.44E2,3.86E2,1.069E3,2.7E1,1.1E0,6E0,1.04E2,1.65E0,4E1,4E0,1.2E1,1.95E2,6.17E2,2.4E1,3.37E2,5.9E1,1.984E3,1.1E1,6.82E2,4.26E3,1.19E2,8.29E2,4.86E2,7.5E0,7.79E2,1.1E1,1E0,9.3E2,1.95E2,6.7E1,7.79E2,3.4E1,6.1E1,5.06E2,-7.3209554E-2,8.275862E-2,4.2477872E-2,2.3999998E-2,1.0304027E-1,7.4267104E-2,2.9813662E-2,8.3174E-2,6.341463E-2,6.531148E-2,5.5752214E-2,-6.7415773E-3,4.702053E-2,3.496332E-2,2.1595834E-2,5.0346415E-2,3.4982715E-2,1.6958274E-2,-3.4883726E-2,4.9924355E-2,2.6232556E-2,1.1484034E-2,2.4915822E-2,7.1942003E-4,2.6726056E-2,2.9509084E-3,-2.6829273E-2,2.0993223E-2,-1.2840472E-2,-8.744518E-3,-2.6852114E-3,-1.6962728E-2,2.675159E-2,-1.5775422E-2,-4.513275E-2,-3.7610077E-3,-2.0203607E-2,-1.7421652E-2,-3.1147545E-2,-2.4801819E-2,3.934422E-3,-2.7316237E-2,-3.006962E-2,-3.67589E-2,-8.502029E-3,-3.2517012E-2,-3.6481608E-2,5.454545E-2,-2.5674095E-2,-4.1188166E-2,-4.8785053E-2,-6.087592E-2,-4.058273E-2,-4.4875186E-2,-3.0434787E-2,-5.1851388E-2,-3.707866E-2,-5.15369E-2,-5.4279E-2,-3.134329E-2,4.285714E-2,-6.145669E-2,-1.5789477E-2],"split_indices":[0,0,0,0,0,0,0,0,0,0,0,0,0,0,0,1,3,3,1,4,3,3,4,3,3,3,3,3,1,3,1,3,0,3,3,0,3,4,3,3,1,3,3,3,1,4,3,1,3,4,3,0,4,0,1,4,3,4,4,0,0,4,0,0,0,0,0,0,0,0,0,0,0,0,0,0,0,0,0,0,0,0,0,0,0,0,0,0,0,0,0,0,0,0,0,0,0,0,0,0,0,0,0,0,0,0,0,0,0,0,0,0,0,0,0,0,0,0,0,0,0,0,0,0,0],"split_type":[0,0,0,0,0,0,0,0,0,0,0,0,0,0,0,0,0,0,0,0,0,0,0,0,0,0,0,0,0,0,0,0,0,0,0,0,0,0,0,0,0,0,0,0,0,0,0,0,0,0,0,0,0,0,0,0,0,0,0,0,0,0,0,0,0,0,0,0,0,0,0,0,0,0,0,0,0,0,0,0,0,0,0,0,0,0,0,0,0,0,0,0,0,0,0,0,0,0,0,0,0,0,0,0,0,0,0,0,0,0,0,0,0,0,0,0,0,0,0,0,0,0,0,0,0],"sum_hessian":[4.1189773E4,1.4069332E4,2.7120443E4,2.8955554E3,1.1173777E4,1.5670666E4,1.1449777E4,5.0711108E2,2.3884443E3,4.0657776E3,7.1079995E3,5.3924443E3,1.0278222E4,7.405333E3,4.044444E3,1.7555554E2,3.3155554E2,8.115555E2,1.5768888E3,1.6804443E3,2.3853333E3,1.3879999E3,5.7199995E3,2.439111E3,2.9533333E3,6.7799995E3,3.498222E3,4.6626665E3,2.7426665E3,3.2257776E3,8.186666E2,3.9555553E1,1.3599998E2,1.1822221E2,2.1333331E2,5.817778E2,2.2977777E2,5.351111E2,1.0417777E3,1.2506666E3,4.2977774E2,1.9204443E3,4.6488885E2,1.2137777E3,1.7422221E2,5.2604443E3,4.5955554E2,1.8826665E3,5.564444E2,1.8422222E3,1.1111111E3,6.671555E3,1.08444435E2,3.4017776E3,9.6444435E1,4.4817773E3,1.8088889E2,1.7093333E3,1.0333333E3,3.2031108E3,2.2666666E1,7.777777E2,4.0888885E1,2.7999998E1,1.1555555E1,1.7777777E0,1.3422221E2,1.0133333E2,1.6888887E1,1.7333333E2,3.9999996E1,1.6844443E2,4.133333E2,8.888888E0,2.2088887E2,4.0799997E2,1.2711111E2,4.3199997E2,6.097778E2,1.2373333E3,1.3333332E1,7.244444E1,3.573333E2,1.6244443E3,2.9599997E2,4.1599997E2,4.8888885E1,1.1737777E3,3.9999996E1,1.4666666E2,2.7555553E1,1.8973333E3,3.3631108E3,4.4311108E2,1.6444443E1,1.871111E3,1.1555555E1,4.1555554E2,1.4088889E2,1.7822222E3,5.9999996E1,1.0782222E3,3.2888885E1,2.5066665E3,4.1648887E3,2.7111109E1,8.133333E1,2.2039998E3,1.1977777E3,2.6666665E0,9.377777E1,4.3044443E3,1.7733333E2,7.511111E1,1.0577777E2,1.6413333E3,6.799999E1,8.6622217E2,1.671111E2,1.3617777E3,1.8413333E3,2.1333332E1,1.3333333E0,7.724444E2,5.333333E0],"tree_param":{"num_deleted":"0","num_feature":"5","num_nodes":"125","size_leaf_vector":"1"}},{"base_weights":[3.7508756E-1,9.7368285E-2,3.9851874E-1,-1.9824685E-1,1.5089802E-1,3.0092698E-1,4.1370118E-1,-3.203286E-1,-1.3813819E-1,7.49896E-2,1.8255293E-1,2.8046402E-1,3.251882E-1,4.2579174E-1,2.995684E-1,-1.7777783E-1,-3.7183103E-1,-2.648172E-1,-9.218261E-2,-3.3725135E-2,1.1505758E-1,2.175689E-1,1.2482849E-1,2.4207489E-1,2.903419E-1,3.137367E-1,4.3487072E-1,4.3358058E-1,3.9204577E-1,3.1744993E-1,1.8858433E-1,4.137931E-2,-2.1818186E-1,-2.761311E-1,-5.057737E-1,-3.477407E-1,-1.12628035E-1,4.5205477E-1,-1.10283904E-1,1.8633496E-2,-1.79884E-1,1.8844981E-1,2.1785518E-2,2.3926167E-1,1.2143924E-1,9.0795755E-2,3.2423922E-1,1.4701983E-1,3.143438E-1,3.140717E-1,2.4873231E-1,2.92088E-1,3.942474E-1,5.7119995E-1,3.691967E-1,3.9197287E-1,4.4432586E-1,3.8009986E-1,4.17901E-1,3.7392956E-1,2.931044E-1,2.0363058E-1,-1.2972978E-1,-4.7058832E-2,-4.979258E-3,-6.857144E-2,-1.926606E-2,-1.9480525E-2,-5.589042E-2,-2.7345851E-2,-5.1724143E-2,6.486487E-2,-2.1509439E-2,-3.5762788E-9,8.9189194E-2,-1.3446681E-2,1.10599045E-2,3.406667E-3,-4.2857148E-2,-2.9692838E-2,-2.5751116E-3,9.5629785E-3,3.629268E-2,-6.52174E-2,4.208676E-3,2.3400342E-2,7.777777E-2,6.829819E-3,4.86166E-2,1.2332159E-2,-1.1082808E-2,-1.2371139E-2,3.7109822E-2,1.5505614E-2,-2.4489801E-2,1.5483866E-2,3.429603E-2,3.059413E-2,4.9714282E-2,2.4015574E-2,4.0214475E-2,3.7971012E-2,2.6925951E-2,5.857284E-2,3.2937683E-2,6.5142855E-2,1.3761464E-2,3.1243676E-2,5.092838E-2,4.394305E-2,3.6727652E-2,4.4908166E-2,4.134999E-2,3.779095E-2,6.943231E-2,4.6449047E-2,3.8256362E-2,3.5474896E-2,6.135084E-2,3.0873248E-2,2.426309E-2,1.859539E-2,4.095563E-2,-6.1224498E-2,4.137927E-3],"categories":[],"categories_nodes":[],"categories_segments":[],"categories_sizes":[],"default_left":[0,0,0,0,0,0,0,0,0,0,0,0,0,0,0,0,0,0,0,0,0,0,0,0,0,0,0,0,0,0,0,0,0,0,0,0,0,0,0,0,0,0,0,0,0,0,0,0,0,0,0,0,0,0,0,0,0,0,0,0,0,0,0,0,0,0,0,0,0,0,0,0,0,0,0,0,0,0,0,0,0,0,0,0,0,0,0,0,0,0,0,0,0,0,0,0,0,0,0,0,0,0,0,0,0,0,0,0,0,0,0,0,0,0,0,0,0,0,0,0,0,0,0,0,0],"id":1,"left_children":[1,3,5,7,9,11,13,15,17,19,21,23,25,27,29,31,33,35,37,39,41,43,45,47,49,51,53,55,57,59,61,-1,63,65,67,69,71,73,75,77,79,81,83,85,87,89,91,93,95,97,99,101,103,105,107,109,111,113,115,117,119,121,123,-1,-1,-1,-1,-1,-1,-1,-1,-1,-1,-1,-1,-1,-1,-1,-1,-1,-1,-1,-1,-1,-1,-1,-1,-1,-1,-1,-1,-1,-1,-1,-1,-1,-1,-1,-1,-1,-1,-1,-1,-1,-1,-1,-1,-1,-1,-1,-1,-1,-1,-1,-1,-1,-1,-1,-1,-1,-1,-1,-1,-1,-1],"loss_changes":[2.6927588E2,5.100669E1,5.6426758E1,3.583252E0,6.541622E0,2.4615784E0,4.5444824E1,1.1257019E0,1.9141836E0,3.5085082E0,3.8628922E0,9.901581E-1,2.810608E0,7.6782227E0,6.224823E0,1.1658655E0,1.3771744E0,1.0728025E0,2.472204E0,1.6673839E0,4.021777E0,2.4661484E0,4.9179134E0,3.9266586E0,2.1131287E0,3.5940552E0,1.7518692E0,1.0667969E1,1.5739136E0,3.6385803E0,2.1428146E0,0E0,1.7947323E0,2.302844E0,6.8600845E-1,5.706401E-1,2.6790247E0,1.6127362E0,1.2903259E0,1.1257885E0,1.0286736E0,5.293434E0,3.586344E0,2.5794868E0,4.2760515E0,4.106577E0,2.2685728E0,8.306155E-1,1.442524E0,1.9457703E0,9.702034E-1,3.260254E0,5.3732834E0,2.326046E0,1.0397644E0,5.682251E0,2.638916E0,2.3861084E0,2.7244568E0,3.5387192E0,1.4312592E0,1.4611702E0,1.7224566E0,0E0,0E0,0E0,0E0,0E0,0E0,0E0,0E0,0E0,0E0,0E0,0E0,0E0,0E0,0E0,0E0,0E0,0E0,0E0,0E0,0E0,0E0,0E0,0E0,0E0,0E0,0E0,0E0,0E0,0E0,0E0,0E0,0E0,0E0,0E0,0E0,0E0,0E0,0E0,0E0,0E0,0E0,0E0,0E0,0E0,0E0,0E0,0E0,0E0,0E0,0E0,0E0,0E0,0E0,0E0,0E0,0E0,0E0,0E0,0E0,0E0,0E0],"parents":[2147483647,0,0,1,1,2,2,3,3,4,4,5,5,6,6,7,7,8,8,9,9,10,10,11,11,12,12,13,13,14,14,15,15,16,16,17,17,18,18,19,19,20,20,21,21,22,22,23,23,24,24,25,25,26,26,27,27,28,28,29,29,30,30,32,32,33,33,34,34,35,35,36,36,37,37,38,38,39,39,40,40,41,41,42,42,43,43,44,44,45,45,46,46,47,47,48,48,49,49,50,50,51,51,52,52,53,53,54,54,55,55,56,56,57,57,58,58,59,59,60,60,61,61,62,62],"right_children":[2,4,6,8,10,12,14,16,18,20,22,24,26,28,30,32,34,36,38,40,42,44,46,48,50,52,54,56,58,60,62,-1,64,66,68,70,72,74,76,78,80,82,84,86,88,90,92,94,96,98,100,102,104,106,108,110,112,114,116,118,120,122,124,-1,-1,-1,-1,-1,-1,-1,-1,-1,-1,-1,-1,-1,-1,-1,-1,-1,-1,-1,-1,-1,-1,-1,-1,-1,-1,-1,-1,-1,-1,-1,-1,-1,-1,-1,-1,-1,-1,-1,-1,-1,-1,-1,-1,-1,-1,-1,-1,-1,-1,-1,-1,-1,-1,-1,-1,-1,-1,-1,-1,-1,-1],"split_conditions":[2.4E0,1.55E0,3.5E0,1.35E0,1.85E0,3E0,3.1E1,5E0,1E0,1.4E1,7.9E1,1E0,1.327E3,1.5E1,1.01E2,1E0,1.3E0,8.2E1,3E0,1E0,3.56E2,3.13E2,1.327E3,2.8E1,8E1,1.41E2,2.8E1,4.6E0,6.3E1,7E0,2.61E2,4.137931E-2,4.2E1,3.7E1,5.5E1,3.3E1,1.09E2,1.5E0,1.031E3,5.15E2,6E0,7.9E1,1.81E2,6.17E2,2.249E3,7.27E2,1.9E0,2.7E1,2.45E0,7.1E1,2.353E3,3.1E0,1.77E2,4.455E3,1.687E3,1.2E1,4.14E2,5.582E3,5.7E1,6E0,3.01E2,1.13E2,3.41E2,-4.7058832E-2,-4.979258E-3,-6.857144E-2,-1.926606E-2,-1.9480525E-2,-5.589042E-2,-2.7345851E-2,-5.1724143E-2,6.486487E-2,-2.1509439E-2,-3.5762788E-9,8.9189194E-2,-1.3446681E-2,1.10599045E-2,3.406667E-3,-4.2857148E-2,-2.9692838E-2,-2.5751116E-3,9.5629785E-3,3.629268E-2,-6.52174E-2,4.208676E-3,2.3400342E-2,7.777777E-2,6.829819E-3,4.86166E-2,1.2332159E-2,-1.1082808E-2,-1.2371139E-2,3.7109822E-2,1.5505614E-2,-2.4489801E-2,1.5483866E-2,3.429603E-2,3.059413E-2,4.9714282E-2,2.4015574E-2,4.0214475E-2,3.7971012E-2,2.6925951E-2,5.857284E-2,3.2937683E-2,6.5142855E-2,1.3761464E-2,3.1243676E-2,5.092838E-2,4.394305E-2,3.6727652E-2,4.4908166E-2,4.134999E-2,3.779095E-2,6.943231E-2,4.6449047E-2,3.8256362E-2,3.5474896E-2,6.135084E-2,3.0873248E-2,2.426309E-2,1.859539E-2,4.095563E-2,-6.1224498E-2,4.137927E-3],"split_indices":[0,0,0,0,0,0,0,1,1,1,2,1,1,0,0,2,0,2,1,1,1,4,1,2,2,2,2,0,2,2,2,0,2,4,1,2,2,0,4,2,1,2,4,1,1,1,0,2,0,2,4,0,2,1,4,4,4,1,1,2,1,2,2,0,0,0,0,0,0,0,0,0,0,0,0,0,0,0,0,0,0,0,0,0,0,0,0,0,0,0,0,0,0,0,0,0,0,0,0,0,0,0,0,0,0,0,0,0,0,0,0,0,0,0,0,0,0,0,0,0,0,0,0,0,0],"split_type":[0,0,0,0,0,0,0,0,0,0,0,0,0,0,0,0,0,0,0,0,0,0,0,0,0,0,0,0,0,0,0,0,0,0,0,0,0,0,0,0,0,0,0,0,0,0,0,0,0,0,0,0,0,0,0,0,0,0,0,0,0,0,0,0,0,0,0,0,0,0,0,0,0,0,0,0,0,0,0,0,0,0,0,0,0,0,0,0,0,0,0,0,0,0,0,0,0,0,0,0,0,0,0,0,0,0,0,0,0,0,0,0,0,0,0,0,0,0,0,0,0,0,0,0,0],"sum_hessian":[4.1385773E4,3.2204443E3,3.8165332E4,4.933333E2,2.7271108E3,5.1408887E3,3.302444E4,1.6133333E2,3.3199997E2,8.035555E2,1.9235554E3,2.7955554E3,2.3453333E3,2.9858664E4,3.1657776E3,4.3999996E1,1.1733333E2,8.711111E1,2.4488887E2,2.1644443E2,5.871111E2,1.1955555E3,7.2799994E2,5.773333E2,2.2182222E3,2.127111E3,2.1822221E2,2.4249775E4,5.6088887E3,2.7248887E3,4.4088885E2,2.222222E0,4.1777775E1,7.022222E1,4.7111107E1,5.5555553E1,3.1555553E1,7.1111107E0,2.3777777E2,1.5999998E2,5.6444443E1,3.2799997E2,2.5911108E2,9.7422217E2,2.2133331E2,6.231111E2,1.04888885E2,2.5066666E2,3.2666666E2,1.4084443E3,8.097777E2,1.6799999E3,4.4711108E2,6.844444E1,1.4977777E2,4.9848887E3,1.9264889E4,3.8471108E3,1.7617777E3,8.164444E2,1.9084443E3,4.213333E2,1.9555553E1,1.5999999E1,2.5777777E1,1.0666666E1,5.9555553E1,7.5555553E0,3.9555553E1,4.0444443E1,1.5111111E1,3.111111E0,2.8444443E1,3.9999998E0,3.111111E0,2.1466666E2,2.311111E1,1.5555554E2,4.444444E0,3.1555553E1,2.4888887E1,2.151111E2,1.12888885E2,6.666666E0,2.5244443E2,9.6622217E2,7.9999995E0,1.9422221E2,2.7111109E1,5.3688885E2,8.622221E1,9.777777E0,9.511111E1,2.4622221E2,4.444444E0,5.0666664E1,2.7599997E2,1.3511111E3,5.733333E1,7.693333E2,4.0444443E1,3.4399997E2,1.3359999E3,1.1111111E2,3.3599997E2,5.733333E1,1.1111111E1,1.08888885E2,4.0888885E1,1.7004443E3,3.2844443E3,1.667822E4,2.5866665E3,3.8226665E3,2.4444443E1,7.546666E2,1.007111E3,7.5822217E2,5.8222218E1,1.4533333E3,4.5511108E2,3.8977774E2,3.1555553E1,4.444444E0,1.5111111E1],"tree_param":{"num_deleted":"0","num_feature":"5","num_nodes":"125","size_leaf_vector":"1"}},{"base_weights":[-1.883672E-1,-3.813365E-1,-1.4247961E-2,-5.1063836E-1,-3.1019846E-1,-9.767551E-2,1.6783111E-1,-5.986457E-1,-4.5438606E-1,-3.4093478E-1,-2.5756967E-1,-1.6196908E-1,-3.140866E-2,9.98399E-2,2.4734066E-1,-6.561505E-1,-5.7702047E-1,-4.1516933E-1,-4.6828026E-1,-3.6086044E-1,-3.2128963E-1,-2.6111352E-1,-1.8060741E-1,-1.6629104E-1,-6.0962614E-2,-7.8602664E-2,-4.3608216E-3,1.2122316E-1,5.815914E-2,2.1317223E-1,3.7985831E-1,-6.2317705E-1,-6.752768E-2,-5.78753E-1,-3.9593914E-1,-3.565332E-1,-4.6308732E-1,-5.0327754E-1,-4.4062328E-1,-3.8029355E-1,-3.3106533E-1,-3.227612E-1,8.75912E-2,-2.573849E-1,-3.8508245E-1,-2.274882E-1,-7.335007E-3,-1.7304538E-1,-1.21673495E-1,-9.783943E-2,1.9113569E-1,-3.5962645E-2,-1.247726E-1,2.1150963E-2,-2.407404E-2,3.2640904E-2,1.3541608E-1,8.964624E-3,1.0835575E-1,2.3414527E-1,1.7797509E-1,3.240667E-1,4.8243442E-1,-6.283541E-2,-2.4489801E-2,-5.706669E-2,-6.1404627E-2,-6.923078E-2,3.3707828E-3,-5.1336903E-2,-3.3383127E-2,-3.85754E-2,-4.8097283E-2,-5.5956688E-2,-4.8860535E-2,-5.1681545E-2,-4.3260586E-2,-3.816275E-2,7.2413795E-2,-3.224186E-2,-5.2461803E-2,-3.2740515E-2,-2.537765E-2,-5.3097387E-3,5.454545E-2,-2.599145E-2,-1.4432996E-2,-4.315306E-2,-2.3549493E-2,-1.7077321E-2,-4.3689325E-2,1.6551722E-2,-9.890115E-3,-1.6542723E-2,-2.2672186E-2,-1.0586887E-2,-2.761665E-2,-3.1746079E-3,-2.444153E-2,1.30434735E-2,9.6E-2,-1.0907962E-2,9.728844E-4,-1.5270001E-2,-5.0300583E-3,5.998169E-3,-2.413349E-3,-8.84407E-3,-4.468015E-9,5.1828003E-3,-5.424959E-3,1.1768884E-2,2.1599289E-2,1.4880381E-3,-6.2264156E-2,1.6390603E-2,-3.9241384E-3,3.0581294E-2,2.0970648E-2,9.6950345E-3,2.0616906E-2,2.6325164E-2,4.1077223E-2,7.2413795E-2,4.443188E-2],"categories":[],"categories_nodes":[],"categories_segments":[],"categories_sizes":[],"default_left":[0,0,0,0,0,0,0,0,0,0,0,0,0,0,0,0,0,0,0,0,0,0,0,0,0,0,0,0,0,0,0,0,0,0,0,0,0,0,0,0,0,0,0,0,0,0,0,0,0,0,0,0,0,0,0,0,0,0,0,0,0,0,0,0,0,0,0,0,0,0,0,0,0,0,0,0,0,0,0,0,0,0,0,0,0,0,0,0,0,0,0,0,0,0,0,0,0,0,0,0,0,0,0,0,0,0,0,0,0,0,0,0,0,0,0,0,0,0,0,0,0,0,0,0,0],"id":2,"left_children":[1,3,5,7,9,11,13,15,17,19,21,23,25,27,29,31,33,35,37,39,41,43,45,47,49,51,53,55,57,59,61,63,-1,65,67,69,71,73,75,77,79,81,83,85,87,89,91,93,95,97,99,101,103,105,107,109,111,113,115,117,119,121,123,-1,-1,-1,-1,-1,-1,-1,-1,-1,-1,-1,-1,-1,-1,-1,-1,-1,-1,-1,-1,-1,-1,-1,-1,-1,-1,-1,-1,-1,-1,-1,-1,-1,-1,-1,-1,-1,-1,-1,-1,-1,-1,-1,-1,-1,-1,-1,-1,-1,-1,-1,-1,-1,-1,-1,-1,-1,-1,-1,-1,-1,-1],"loss_changes":[1.3876198E3,1.8002686E2,3.2981198E2,3.413855E1,2.0357544E1,6.343187E1,3.6856506E1,2.988037E0,2.1183472E0,3.0062866E0,1.2249451E0,3.2888489E0,9.360767E0,3.272129E0,1.4155319E1,4.1168213E-2,3.90625E-1,2.979599E0,2.8043213E0,2.1621704E0,2.4503784E0,1.960846E0,1.6924586E0,2.1627197E0,2.9161353E0,5.255188E0,2.3455107E0,3.0516548E0,3.0844045E0,1.805191E0,3.5247345E0,3.9816284E-1,0E0,2.074585E-1,2.810533E0,1.6361542E0,6.6171265E-1,8.6053467E-1,8.480835E-1,3.789978E0,2.4545135E0,1.2019348E0,1.0095189E0,1.2006226E0,7.8849983E-1,1.8744402E0,7.356376E-1,2.5350647E0,2.3053045E0,2.6326745E0,1.7467998E0,4.645919E0,2.6593304E0,3.5763316E0,4.076555E0,5.6465006E-1,2.9667664E0,2.371103E0,5.0761824E0,2.6761475E0,2.1235485E0,2.1047668E0,1.7470093E0,0E0,0E0,0E0,0E0,0E0,0E0,0E0,0E0,0E0,0E0,0E0,0E0,0E0,0E0,0E0,0E0,0E0,0E0,0E0,0E0,0E0,0E0,0E0,0E0,0E0,0E0,0E0,0E0,0E0,0E0,0E0,0E0,0E0,0E0,0E0,0E0,0E0,0E0,0E0,0E0,0E0,0E0,0E0,0E0,0E0,0E0,0E0,0E0,0E0,0E0,0E0,0E0,0E0,0E0,0E0,0E0,0E0,0E0,0E0,0E0,0E0,0E0],"parents":[2147483647,0,0,1,1,2,2,3,3,4,4,5,5,6,6,7,7,8,8,9,9,10,10,11,11,12,12,13,13,14,14,15,15,16,16,17,17,18,18,19,19,20,20,21,21,22,22,23,23,24,24,25,25,26,26,27,27,28,28,29,29,30,30,31,31,33,33,34,34,35,35,36,36,37,37,38,38,39,39,40,40,41,41,42,42,43,43,44,44,45,45,46,46,47,47,48,48,49,49,50,50,51,51,52,52,53,53,54,54,55,55,56,56,57,57,58,58,59,59,60,60,61,61,62,62],"right_children":[2,4,6,8,10,12,14,16,18,20,22,24,26,28,30,32,34,36,38,40,42,44,46,48,50,52,54,56,58,60,62,64,-1,66,68,70,72,74,76,78,80,82,84,86,88,90,92,94,96,98,100,102,104,106,108,110,112,114,116,118,120,122,124,-1,-1,-1,-1,-1,-1,-1,-1,-1,-1,-1,-1,-1,-1,-1,-1,-1,-1,-1,-1,-1,-1,-1,-1,-1,-1,-1,-1,-1,-1,-1,-1,-1,-1,-1,-1,-1,-1,-1,-1,-1,-1,-1,-1,-1,-1,-1,-1,-1,-1,-1,-1,-1,-1,-1,-1,-1,-1,-1,-1,-1,-1],"split_conditions":[6.5E0,3.2E0,1.8E1,2.25E0,5E0,1E1,3.1E1,1.65E0,7E0,4E0,1.937E3,4.26E2,1.2E1,5.7E1,8.1E1,3.2E1,1.149E3,2.9E1,2.7E0,1.5E1,6.22E3,1.397E3,3.06E2,4.4E1,9.5E0,3.5E1,4.3E1,1.9E1,9.8E1,6E0,3.5E1,3.1E1,-6.752768E-2,6.4E1,1.95E0,2.35E0,2E0,6E1,2E0,5.766E3,4.26E3,3.41E2,4.86E2,1.223E3,1.77E2,1.76E2,3.64E2,1.36E2,3.01E2,7.28E2,1.149E3,5E0,3.4E1,3E1,1.29E2,3.5E1,3.3E1,9.6E1,9.68E2,1E0,1E1,1.26E2,4.5E1,-6.283541E-2,-2.4489801E-2,-5.706669E-2,-6.1404627E-2,-6.923078E-2,3.3707828E-3,-5.1336903E-2,-3.3383127E-2,-3.85754E-2,-4.8097283E-2,-5.5956688E-2,-4.8860535E-2,-5.1681545E-2,-4.3260586E-2,-3.816275E-2,7.2413795E-2,-3.224186E-2,-5.2461803E-2,-3.2740515E-2,-2.537765E-2,-5.3097387E-3,5.454545E-2,-2.599145E-2,-1.4432996E-2,-4.315306E-2,-2.3549493E-2,-1.7077321E-2,-4.3689325E-2,1.6551722E-2,-9.890115E-3,-1.6542723E-2,-2.2672186E-2,-1.0586887E-2,-2.761665E-2,-3.1746079E-3,-2.444153E-2,1.30434735E-2,9.6E-2,-1.0907962E-2,9.728844E-4,-1.5270001E-2,-5.0300583E-3,5.998169E-3,-2.413349E-3,-8.84407E-3,-4.468015E-9,5.1828003E-3,-5.424959E-3,1.1768884E-2,2.1599289E-2,1.4880381E-3,-6.2264156E-2,1.6390603E-2,-3.9241384E-3,3.0581294E-2,2.0970648E-2,9.6950345E-3,2.0616906E-2,2.6325164E-2,4.1077223E-2,7.2413795E-2,4.443188E-2],"split_indices":[0,0,0,0,0,0,0,0,1,0,1,2,0,2,0,2,2,2,0,3,1,1,2,3,0,2,1,0,1,3,2,2,0,3,0,0,3,1,2,1,1,2,3,1,2,3,2,2,3,2,2,2,3,2,1,2,2,1,1,1,3,0,2,0,0,0,0,0,0,0,0,0,0,0,0,0,0,0,0,0,0,0,0,0,0,0,0,0,0,0,0,0,0,0,0,0,0,0,0,0,0,0,0,0,0,0,0,0,0,0,0,0,0,0,0,0,0,0,0,0,0,0,0,0,0],"split_type":[0,0,0,0,0,0,0,0,0,0,0,0,0,0,0,0,0,0,0,0,0,0,0,0,0,0,0,0,0,0,0,0,0,0,0,0,0,0,0,0,0,0,0,0,0,0,0,0,0,0,0,0,0,0,0,0,0,0,0,0,0,0,0,0,0,0,0,0,0,0,0,0,0,0,0,0,0,0,0,0,0,0,0,0,0,0,0,0,0,0,0,0,0,0,0,0,0,0,0,0,0,0,0,0,0,0,0,0,0,0,0,0,0,0,0,0,0,0,0,0,0,0,0,0,0],"sum_hessian":[4.1297773E4,1.9587998E4,2.1709777E4,6.9497773E3,1.2638222E4,1.4888443E4,6.821333E3,2.7062222E3,4.243555E3,7.975111E3,4.663111E3,7.5559995E3,7.332444E3,3.678222E3,3.1431108E3,7.3155554E2,1.9746665E3,1.1182222E3,3.1253333E3,3.9506665E3,4.024444E3,4.455555E3,2.0755554E2,7.245333E3,3.1066666E2,2.6706665E3,4.6617773E3,2.4297776E3,1.2484443E3,2.5008887E3,6.4222217E2,2.808889E2,4.5066663E2,1.9537777E3,2.0888887E1,5.0666663E2,6.1155554E2,1.3719999E3,1.7533333E3,2.3839998E3,1.5666666E3,4.010222E3,1.4222221E1,4.3284443E3,1.2711111E2,1.631111E2,4.4444443E1,6.2902217E3,9.551111E2,2.7155554E2,3.9111107E1,1.3893333E3,1.2813333E3,2.0319999E3,2.6297776E3,3.3599997E2,2.0937776E3,6.311111E2,6.173333E2,1.5635554E3,9.3733325E2,4.1866666E2,2.2355554E2,2.7644443E2,4.444444E0,1.6035554E3,3.502222E2,1.1999999E1,8.888888E0,6.133333E1,4.453333E2,1.1911111E2,4.9244443E2,2.7599997E2,1.0959999E3,1.6088889E2,1.5924443E3,2.3817776E3,2.222222E0,1.5022222E3,6.444444E1,3.7537776E3,2.5644443E2,1.1555555E1,2.6666665E0,4.2324443E3,9.599999E1,9.555555E1,3.1555553E1,1.2977777E2,3.3333332E1,1.5111111E1,2.9333332E1,5.5119995E3,7.7822217E2,8.6799994E2,8.711111E1,1.8799998E2,8.355555E1,3.7333332E1,1.7777777E0,5.337778E2,8.555555E2,9.311111E2,3.502222E2,1.0937777E3,9.3822217E2,7.151111E2,1.9146665E3,2.7555554E2,6.0444443E1,1.7182222E3,3.7555554E2,6.2622217E2,4.8888884E0,4.4844443E2,1.6888889E2,3.9466666E2,1.1688888E3,2.431111E2,6.9422217E2,2.4844443E2,1.7022221E2,2.7999998E1,1.9555554E2],"tree_param":{"num_deleted":"0","num_feature":"5","num_nodes":"125","size_leaf_vector":"1"}},{"base_weights":[-1.7627263E-1,1.1590069E-1,-3.3132288E-1,4.630084E-1,3.140405E-2,-2.3357883E-1,-4.4281664E-1,6.986738E-1,3.9659753E-1,1.3598363E-1,-4.2154267E-2,-1.5761456E-1,-2.79795E-1,-4.0773183E-1,-5.176872E-1,8.6083984E-1,6.2778896E-1,4.4212702E-1,3.3659792E-1,1.9103071E-1,9.949804E-2,1.9570949E-2,-5.9251763E-2,-1.336058E-1,-1.7756586E-1,-2.7066192E-1,-3.2892093E-1,-3.504764E-1,-4.1717032E-1,-5.0336856E-1,-5.753581E-1,8.777457E-1,3.1541467E-1,5.3314114E-1,6.8236953E-1,5.2723294E-1,4.2233843E-1,3.4616968E-1,-6.58192E-2,1.8592833E-1,4.2274955E-1,2.4725018E-1,7.847889E-2,9.802502E-3,1.3163899E-1,-2.7762435E-2,-1.08438976E-1,-1.280753E-1,-2.7006337E-1,-1.2986994E-1,-1.9082953E-1,-2.4599312E-1,-2.828817E-1,-2.9107043E-1,-3.8755575E-1,-3.5848573E-1,-1.15191564E-1,-4.060573E-1,-4.4349593E-1,-5.04686E-1,-2.8597203E-1,-4.9957556E-1,-5.88324E-1,6.978477E-2,9.465517E-2,8.8668875E-2,-6.0162805E-3,5.8495533E-2,2.944927E-2,7.87284E-2,5.9487578E-2,5.6938466E-2,3.990871E-2,4.294152E-2,1.5898973E-2,2.9807938E-2,4.2929165E-2,8.6155385E-3,-6.1119765E-2,1.9112404E-2,4.560629E-4,5.005715E-2,-2.1037558E-2,2.7429739E-2,1.9661956E-3,7.3752925E-3,2.74869E-2,2.9435847E-3,-7.133491E-3,3.7264675E-2,4.7378987E-3,-1.8503215E-3,-1.6649049E-2,-1.0222373E-2,-2.9853258E-2,-1.33236945E-2,2.4864175E-3,-3.3625513E-2,9.986211E-3,-1.35780275E-2,4.9036514E-2,-3.0181644E-2,-1.8266022E-2,-2.4148123E-2,-4.142471E-2,-2.8694076E-2,-2.4294028E-2,-3.0724837E-2,-1.7311359E-2,-3.9392576E-2,5.970117E-3,-3.174791E-2,-3.775006E-2,-3.4793236E-3,-4.952432E-2,-3.3103812E-2,-4.131352E-2,-4.4872377E-2,-3.7083566E-2,-4.833625E-2,-5.197819E-2,8.523876E-3,-5.9235472E-2,-4.5935746E-2,-6.905081E-2,-5.94831E-2,-4.9840737E-2],"categories":[],"categories_nodes":[],"categories_segments":[],"categories_sizes":[],"default_left":[0,0,0,0,0,0,0,0,0,0,0,0,0,0,0,0,0,0,0,0,0,0,0,0,0,0,0,0,0,0,0,0,0,0,0,0,0,0,0,0,0,0,0,0,0,0,0,0,0,0,0,0,0,0,0,0,0,0,0,0,0,0,0,0,0,0,0,0,0,0,0,0,0,0,0,0,0,0,0,0,0,0,0,0,0,0,0,0,0,0,0,0,0,0,0,0,0,0,0,0,0,0,0,0,0,0,0,0,0,0,0,0,0,0,0,0,0,0,0,0,0,0,0,0,0,0,0],"id":3,"left_children":[1,3,5,7,9,11,13,15,17,19,21,23,25,27,29,31,33,35,37,39,41,43,45,47,49,51,53,55,57,59,61,63,65,67,69,71,73,75,77,79,81,83,85,87,89,91,93,95,97,99,101,103,105,107,109,111,113,115,117,119,121,123,125,-1,-1,-1,-1,-1,-1,-1,-1,-1,-1,-1,-1,-1,-1,-1,-1,-1,-1,-1,-1,-1,-1,-1,-1,-1,-1,-1,-1,-1,-1,-1,-1,-1,-1,-1,-1,-1,-1,-1,-1,-1,-1,-1,-1,-1,-1,-1,-1,-1,-1,-1,-1,-1,-1,-1,-1,-1,-1,-1,-1,-1,-1,-1,-1],"loss_changes":[1.8512216E3,4.155232E2,2.9083252E2,4.3132324E1,8.76664E1,4.990576E1,3.2545166E1,6.453949E0,5.7686462E0,9.43203E0,7.062084E0,2.555252E0,3.8793335E0,4.4449463E0,2.99292E0,1.4048309E0,1.842514E0,1.8460999E0,3.6387405E0,2.1378098E0,8.775894E0,1.5882792E0,8.112461E0,1.8125496E0,1.833519E0,2.1802979E0,2.9540863E0,2.2362213E0,1.9522705E0,7.7008057E-1,4.7613525E-1,1.5221252E0,1.5646589E0,1.8158531E0,1.9853745E0,1.0027809E0,1.7985535E0,3.538063E0,1.9300137E0,1.72929E0,2.0566616E0,2.162897E0,2.2822495E0,2.1314316E0,2.344849E0,4.102026E0,2.3853188E0,1.8617325E0,2.3458576E0,2.4210005E0,2.0267792E0,1.7827148E0,7.383728E-1,1.5570297E0,1.5593948E0,7.911377E-1,1.2434914E0,2.5907593E0,6.512146E-1,7.697754E-1,2.5000863E0,6.129055E-1,9.1781616E-2,0E0,0E0,0E0,0E0,0E0,0E0,0E0,0E0,0E0,0E0,0E0,0E0,0E0,0E0,0E0,0E0,0E0,0E0,0E0,0E0,0E0,0E0,0E0,0E0,0E0,0E0,0E0,0E0,0E0,0E0,0E0,0E0,0E0,0E0,0E0,0E0,0E0,0E0,0E0,0E0,0E0,0E0,0E0,0E0,0E0,0E0,0E0,0E0,0E0,0E0,0E0,0E0,0E0,0E0,0E0,0E0,0E0,0E0,0E0,0E0,0E0,0E0,0E0,0E0],"parents":[2147483647,0,0,1,1,2,2,3,3,4,4,5,5,6,6,7,7,8,8,9,9,10,10,11,11,12,12,13,13,14,14,15,15,16,16,17,17,18,18,19,19,20,20,21,21,22,22,23,23,24,24,25,25,26,26,27,27,28,28,29,29,30,30,31,31,32,32,33,33,34,34,35,35,36,36,37,37,38,38,39,39,40,40,41,41,42,42,43,43,44,44,45,45,46,46,47,47,48,48,49,49,50,50,51,51,52,52,53,53,54,54,55,55,56,56,57,57,58,58,59,59,60,60,61,61,62,62],"right_children":[2,4,6,8,10,12,14,16,18,20,22,24,26,28,30,32,34,36,38,40,42,44,46,48,50,52,54,56,58,60,62,64,66,68,70,72,74,76,78,80,82,84,86,88,90,92,94,96,98,100,102,104,106,108,110,112,114,116,118,120,122,124,126,-1,-1,-1,-1,-1,-1,-1,-1,-1,-1,-1,-1,-1,-1,-1,-1,-1,-1,-1,-1,-1,-1,-1,-1,-1,-1,-1,-1,-1,-1,-1,-1,-1,-1,-1,-1,-1,-1,-1,-1,-1,-1,-1,-1,-1,-1,-1,-1,-1,-1,-1,-1,-1,-1,-1,-1,-1,-1,-1,-1,-1,-1,-1,-1],"split_conditions":[4.8E0,2.25E0,1.1E1,1.6E0,3.3E0,6.5E0,2.6E1,1.35E0,2E0,2.7E0,3.6E0,5.5E0,1E1,1.2E1,7.1E1,3.37E2,9E0,1.7E0,4.455E3,3.86E2,3E0,1.14E2,6.2E1,4.38E2,7E0,7.5E0,1.62E2,1.65E2,1.9E1,3.86E2,1E0,8E0,1.24E0,6E0,1.32E2,4.5E1,6.78E2,8.3E1,3.41E2,1.95E2,6.01E3,7.65E2,3.37E2,3E1,1.47E2,1.362E3,4.455E3,3.28E2,1.015E3,9.9E1,1E1,2.5E3,1.128E3,1.03E2,6.01E3,2E0,5.5E2,1E0,1.245E3,3.4E1,1.67E2,4.6E2,2.12E2,6.978477E-2,9.465517E-2,8.8668875E-2,-6.0162805E-3,5.8495533E-2,2.944927E-2,7.87284E-2,5.9487578E-2,5.6938466E-2,3.990871E-2,4.294152E-2,1.5898973E-2,2.9807938E-2,4.2929165E-2,8.6155385E-3,-6.1119765E-2,1.9112404E-2,4.560629E-4,5.005715E-2,-2.1037558E-2,2.7429739E-2,1.9661956E-3,7.3752925E-3,2.74869E-2,2.9435847E-3,-7.133491E-3,3.7264675E-2,4.7378987E-3,-1.8503215E-3,-1.6649049E-2,-1.0222373E-2,-2.9853258E-2,-1.33236945E-2,2.4864175E-3,-3.3625513E-2,9.986211E-3,-1.35780275E-2,4.9036514E-2,-3.0181644E-2,-1.8266022E-2,-2.4148123E-2,-4.142471E-2,-2.8694076E-2,-2.4294028E-2,-3.0724837E-2,-1.7311359E-2,-3.9392576E-2,5.970117E-3,-3.174791E-2,-3.775006E-2,-3.4793236E-3,-4.952432E-2,-3.3103812E-2,-4.131352E-2,-4.4872377E-2,-3.7083566E-2,-4.833625E-2,-5.197819E-2,8.523876E-3,-5.9235472E-2,-4.5935746E-2,-6.905081E-2,-5.94831E-2,-4.9840737E-2],"split_indices":[0,0,0,0,0,0,0,0,0,0,0,0,0,0,0,3,3,0,1,3,2,3,2,2,2,0,1,3,0,3,2,1,0,3,1,3,2,2,2,3,1,1,3,3,3,1,1,2,2,3,2,1,1,1,1,3,3,2,1,0,2,1,2,0,0,0,0,0,0,0,0,0,0,0,0,0,0,0,0,0,0,0,0,0,0,0,0,0,0,0,0,0,0,0,0,0,0,0,0,0,0,0,0,0,0,0,0,0,0,0,0,0,0,0,0,0,0,0,0,0,0,0,0,0,0,0,0],"split_type":[0,0,0,0,0,0,0,0,0,0,0,0,0,0,0,0,0,0,0,0,0,0,0,0,0,0,0,0,0,0,0,0,0,0,0,0,0,0,0,0,0,0,0,0,0,0,0,0,0,0,0,0,0,0,0,0,0,0,0,0,0,0,0,0,0,0,0,0,0,0,0,0,0,0,0,0,0,0,0,0,0,0,0,0,0,0,0,0,0,0,0,0,0,0,0,0,0,0,0,0,0,0,0,0,0,0,0,0,0,0,0,0,0,0,0,0,0,0,0,0,0,0,0,0,0,0,0],"sum_hessian":[4.086257E4,1.4166943E4,2.6695627E4,2.7726335E3,1.139431E4,1.4226591E4,1.2469036E4,6.074649E2,2.1651687E3,4.7046914E3,6.6896187E3,5.383042E3,8.843549E3,8.494777E3,3.9742588E3,1.8137708E2,4.2608783E2,1.2274067E3,9.3776184E2,1.873636E3,2.8310552E3,1.451019E3,5.2385996E3,2.446589E3,2.936453E3,7.4626626E3,1.3808867E3,1.2075718E3,7.2872056E3,3.191575E3,7.8268384E2,1.753332E2,6.043856E0,1.5978085E2,2.6630698E2,2.2671567E2,1.0006911E3,9.161114E2,2.1650492E1,1.8350315E3,3.860449E1,3.5124542E2,2.4798098E3,1.3356814E3,1.1533762E2,3.1948452E3,2.0437544E3,2.3531565E3,9.343258E1,6.412658E2,2.295187E3,2.4790994E3,4.983563E3,8.4279944E2,5.380873E2,1.1673118E3,4.0260063E1,5.1356753E3,2.15153E3,3.1710366E3,2.0538197E1,1.20123024E2,6.625608E2,5.1589954E1,1.23743256E2,1.857551E0,4.186305E0,1.3008607E2,2.9694778E1,1.1746073E2,1.4884624E2,1.6800847E2,5.87072E1,9.738898E2,2.6801315E1,5.8325476E2,3.328566E2,1.759071E1,4.059782E0,1.7838743E3,5.1157196E1,3.4565197E1,4.039292E0,3.1375296E2,3.749246E1,2.4228806E3,5.692905E1,1.0759613E3,2.5972012E2,2.899138E1,8.634624E1,2.9960137E3,1.988316E2,1.980537E3,6.3217422E1,2.2764558E3,7.670069E1,7.932904E1,1.4103539E1,6.3598645E2,5.2793584E0,1.5489272E2,2.1402944E3,2.4167278E3,6.237172E1,4.518218E3,4.6534534E2,7.3973865E2,1.0306078E2,5.306488E2,7.438485E0,3.754117E2,7.919E2,3.4131283E1,6.128782E0,4.4688425E2,4.688791E3,2.0022921E3,1.4923808E2,1.3280837E3,1.842953E3,9.612979E0,1.0925217E1,1.02035995E2,1.8087029E1,6.126125E2,4.99483E1],"tree_param":{"num_deleted":"0","num_feature":"5","num_nodes":"127","size_leaf_vector":"1"}},{"base_weights":[3.415657E-1,8.54837E-2,3.606031E-1,-1.5954359E-1,1.3790673E-1,2.7184445E-1,3.723334E-1,-2.542056E-1,-1.0947595E-1,6.884438E-2,1.7308304E-1,2.4736407E-1,2.845119E-1,3.8156724E-1,2.8024462E-1,-1.9511075E-1,-3.5398147E-1,1.11912124E-1,-1.2528078E-1,9.35048E-2,-5.9939597E-2,1.5874743E-1,3.6648837E-1,2.3499984E-1,5.9137356E-1,4.2803535E-1,2.6804247E-1,3.452999E-1,3.9015847E-1,2.970759E-1,1.7048539E-1,-2.3362614E-1,2.1871476E-1,-5.3329355E-1,-2.1342893E-1,2.8027943E-1,-3.374473E-1,-2.1355747E-1,-6.496933E-2,7.5827755E-2,2.92352E-1,-1.6473596E-1,1.3364447E-2,2.318473E-1,1.168276E-1,2.8417096E-1,6.610186E-1,2.5922036E-1,1.4183848E-1,2.5553617E-1,7.5964177E-1,3.1412888E-1,5.8744997E-1,1.8578832E-1,2.8936225E-1,3.6850527E-1,3.1695786E-1,3.9861956E-1,3.6081293E-1,2.7394253E-1,3.2334763E-1,1.878445E-1,-2.4454728E-1,-4.2305086E-3,-2.8284028E-2,8.765803E-2,2.2296319E-3,-5.830654E-2,-1.8590527E-2,1.7499832E-2,-3.963643E-2,1.7781874E-2,8.6402975E-2,-6.068617E-2,4.3419283E-2,-1.540559E-2,-4.4381075E-2,2.1897953E-2,-1.2177938E-2,8.934975E-3,-4.1408565E-2,4.771362E-2,7.183344E-3,-2.5298227E-2,1.195697E-2,-1.2454566E-3,5.390246E-2,2.2375375E-2,7.582253E-2,-1.7147457E-2,1.2794877E-2,3.174503E-2,-3.7934277E-2,3.7024584E-2,8.3490394E-2,2.4811966E-2,5.0915886E-2,-1.0351638E-2,1.6998272E-2,1.0778704E-2,7.0911646E-2,7.84752E-2,3.828421E-2,3.438775E-2,9.45964E-3,3.31572E-2,6.341399E-2,7.1250476E-2,1.745375E-2,6.1273854E-2,2.78607E-2,3.660773E-2,7.586272E-2,2.7145147E-2,3.529702E-2,3.8557332E-2,4.09011E-2,3.435277E-2,3.932194E-2,2.8817246E-2,1.9090608E-2,3.7352107E-2,2.6562814E-2,1.41196465E-2,3.269778E-2,-4.2398777E-2,5.398922E-2],"categories":[],"categories_nodes":[],"categories_segments":[],"categories_sizes":[],"default_left":[0,0,0,0,0,0,0,0,0,0,0,0,0,0,0,0,0,0,0,0,0,0,0,0,0,0,0,0,0,0,0,0,0,0,0,0,0,0,0,0,0,0,0,0,0,0,0,0,0,0,0,0,0,0,0,0,0,0,0,0,0,0,0,0,0,0,0,0,0,0,0,0,0,0,0,0,0,0,0,0,0,0,0,0,0,0,0,0,0,0,0,0,0,0,0,0,0,0,0,0,0,0,0,0,0,0,0,0,0,0,0,0,0,0,0,0,0,0,0,0,0,0,0,0,0,0,0],"id":4,"left_children":[1,3,5,7,9,11,13,15,17,19,21,23,25,27,29,31,33,35,37,39,41,43,45,47,49,51,53,55,57,59,61,63,65,67,69,71,73,75,77,79,81,83,85,87,89,91,93,95,97,99,101,103,105,107,109,111,113,115,117,119,121,123,125,-1,-1,-1,-1,-1,-1,-1,-1,-1,-1,-1,-1,-1,-1,-1,-1,-1,-1,-1,-1,-1,-1,-1,-1,-1,-1,-1,-1,-1,-1,-1,-1,-1,-1,-1,-1,-1,-1,-1,-1,-1,-1,-1,-1,-1,-1,-1,-1,-1,-1,-1,-1,-1,-1,-1,-1,-1,-1,-1,-1,-1,-1,-1,-1],"loss_changes":[2.0523389E2,3.7462753E1,4.0702637E1,2.4090872E0,5.8224907E0,1.3493958E0,2.9325684E1,9.7524834E-1,1.1968775E0,2.5847614E0,4.3516464E0,6.5343475E0,7.00148E0,9.666504E0,5.7836914E0,1.8595319E0,1.5156183E0,1.83877E0,1.6685486E0,2.3750305E0,1.0095091E0,4.515854E0,2.4546757E0,3.3843307E0,2.844696E0,5.41238E0,4.6869507E0,3.8511353E0,6.168457E0,1.5747833E0,3.0880795E0,9.699483E-1,1.2955513E0,3.7127256E-1,2.7632089E0,8.820864E-1,1.6641098E0,1.6829114E0,3.0782745E0,4.1949854E0,2.2202125E0,1.386176E0,1.0664288E0,2.1279087E0,3.0493526E0,2.0401402E0,8.56513E-1,3.2089005E0,2.1931324E0,1.2274615E0,3.3720016E-2,1.1555729E0,1.3106384E0,3.1897717E0,7.289917E0,2.85849E0,4.3667603E0,2.5161133E0,3.0580444E0,1.672409E0,3.5960236E0,2.5880089E0,2.6762197E0,0E0,0E0,0E0,0E0,0E0,0E0,0E0,0E0,0E0,0E0,0E0,0E0,0E0,0E0,0E0,0E0,0E0,0E0,0E0,0E0,0E0,0E0,0E0,0E0,0E0,0E0,0E0,0E0,0E0,0E0,0E0,0E0,0E0,0E0,0E0,0E0,0E0,0E0,0E0,0E0,0E0,0E0,0E0,0E0,0E0,0E0,0E0,0E0,0E0,0E0,0E0,0E0,0E0,0E0,0E0,0E0,0E0,0E0,0E0,0E0,0E0,0E0,0E0,0E0],"parents":[2147483647,0,0,1,1,2,2,3,3,4,4,5,5,6,6,7,7,8,8,9,9,10,10,11,11,12,12,13,13,14,14,15,15,16,16,17,17,18,18,19,19,20,20,21,21,22,22,23,23,24,24,25,25,26,26,27,27,28,28,29,29,30,30,31,31,32,32,33,33,34,34,35,35,36,36,37,37,38,38,39,39,40,40,41,41,42,42,43,43,44,44,45,45,46,46,47,47,48,48,49,49,50,50,51,51,52,52,53,53,54,54,55,55,56,56,57,57,58,58,59,59,60,60,61,61,62,62],"right_children":[2,4,6,8,10,12,14,16,18,20,22,24,26,28,30,32,34,36,38,40,42,44,46,48,50,52,54,56,58,60,62,64,66,68,70,72,74,76,78,80,82,84,86,88,90,92,94,96,98,100,102,104,106,108,110,112,114,116,118,120,122,124,126,-1,-1,-1,-1,-1,-1,-1,-1,-1,-1,-1,-1,-1,-1,-1,-1,-1,-1,-1,-1,-1,-1,-1,-1,-1,-1,-1,-1,-1,-1,-1,-1,-1,-1,-1,-1,-1,-1,-1,-1,-1,-1,-1,-1,-1,-1,-1,-1,-1,-1,-1,-1,-1,-1,-1,-1,-1,-1,-1,-1,-1,-1,-1,-1],"split_conditions":[2.3E0,1.55E0,3.3E0,1.35E0,1.85E0,3.1E1,3.1E1,1.88E2,1E0,6.13E2,1.013E3,4.26E2,6.1E1,4.5E0,1.01E2,2.23E2,1.28E0,2.02E2,2.7E1,3.7E2,9.47E2,3.4E1,2.2E0,1E1,2.7E0,2.4E1,1.23E2,1.25E2,1.5E1,6.2E1,2.53E2,1.22E0,9E0,2.86E2,1.3E0,1.52E2,1.223E3,1.1E1,1.11E2,3.13E2,6.8E1,1.8E0,6.78E2,3.2E1,4.3E1,6.22E3,4.8E1,5E0,1.2E1,1E0,1.149E3,2.2E1,4.1E1,2.4E1,6.8E1,8.5E1,4.23E2,2.8E1,5.6E1,3.2E1,3.06E2,8.3E1,1.015E3,-4.2305086E-3,-2.8284028E-2,8.765803E-2,2.2296319E-3,-5.830654E-2,-1.8590527E-2,1.7499832E-2,-3.963643E-2,1.7781874E-2,8.6402975E-2,-6.068617E-2,4.3419283E-2,-1.540559E-2,-4.4381075E-2,2.1897953E-2,-1.2177938E-2,8.934975E-3,-4.1408565E-2,4.771362E-2,7.183344E-3,-2.5298227E-2,1.195697E-2,-1.2454566E-3,5.390246E-2,2.2375375E-2,7.582253E-2,-1.7147457E-2,1.2794877E-2,3.174503E-2,-3.7934277E-2,3.7024584E-2,8.3490394E-2,2.4811966E-2,5.0915886E-2,-1.0351638E-2,1.6998272E-2,1.0778704E-2,7.0911646E-2,7.84752E-2,3.828421E-2,3.438775E-2,9.45964E-3,3.31572E-2,6.341399E-2,7.1250476E-2,1.745375E-2,6.1273854E-2,2.78607E-2,3.660773E-2,7.586272E-2,2.7145147E-2,3.529702E-2,3.8557332E-2,4.09011E-2,3.435277E-2,3.932194E-2,2.8817246E-2,1.9090608E-2,3.7352107E-2,2.6562814E-2,1.41196465E-2,3.269778E-2,-4.2398777E-2,5.398922E-2],"split_indices":[0,0,0,0,0,1,0,4,2,4,4,2,1,0,0,1,0,4,4,4,4,1,0,1,0,4,1,1,0,1,2,0,2,2,0,4,1,4,1,4,2,0,2,1,1,1,2,4,1,1,2,4,1,4,4,4,1,4,2,1,1,4,2,0,0,0,0,0,0,0,0,0,0,0,0,0,0,0,0,0,0,0,0,0,0,0,0,0,0,0,0,0,0,0,0,0,0,0,0,0,0,0,0,0,0,0,0,0,0,0,0,0,0,0,0,0,0,0,0,0,0,0,0,0,0,0,0],"split_type":[0,0,0,0,0,0,0,0,0,0,0,0,0,0,0,0,0,0,0,0,0,0,0,0,0,0,0,0,0,0,0,0,0,0,0,0,0,0,0,0,0,0,0,0,0,0,0,0,0,0,0,0,0,0,0,0,0,0,0,0,0,0,0,0,0,0,0,0,0,0,0,0,0,0,0,0,0,0,0,0,0,0,0,0,0,0,0,0,0,0,0,0,0,0,0,0,0,0,0,0,0,0,0,0,0,0,0,0,0,0,0,0,0,0,0,0,0,0,0,0,0,0,0,0,0,0,0],"sum_hessian":[4.2103312E4,2.913795E3,3.9189516E4,5.1317084E2,2.400624E3,4.577508E3,3.4612008E4,1.7611534E2,3.3705548E2,8.11111E2,1.5895131E3,1.5679341E3,3.0095737E3,3.1454848E4,3.157161E3,1.12462166E2,6.3653187E1,2.205379E1,3.150017E2,6.809853E2,1.301257E2,1.4815206E3,1.0799249E2,1.51516E3,5.2774055E1,3.072282E2,2.7023457E3,6.03206E3,2.5422787E4,2.7359106E3,4.212504E2,1.0328474E2,9.177426E0,2.6742174E1,3.691101E1,1.6316532E1,5.737257E0,1.26826866E2,1.8817484E2,6.266582E2,5.4327095E1,5.304484E1,7.7080864E1,5.383006E2,9.4322E2,8.593859E1,2.2053905E1,1.2011079E3,3.140521E2,1.8456448E1,3.4317608E1,1.8092351E2,1.2630469E2,5.582531E2,2.1440925E3,3.309974E3,2.7220857E3,1.9723438E4,5.6993506E3,1.4609296E3,1.2749811E3,4.0486398E2,1.638639E1,2.1512812E1,8.177193E1,1.3139119E0,7.863514E0,2.2797457E1,3.944717E0,1.1831832E1,2.507918E1,1.49900675E1,1.326464E0,4.410793E0,1.326464E0,1.02109116E2,2.471775E1,3.0895897E1,1.5727895E2,6.106222E2,1.6036024E1,2.892533E1,2.5401766E1,4.05642E1,1.2480642E1,7.440271E1,2.6781542E0,5.3155255E2,6.7480354E0,3.4497494E1,9.087225E2,8.233075E1,3.607841E0,9.424095E0,1.262981E1,1.1519387E3,4.916919E1,3.2041733E1,2.8201038E2,1.4855166E1,3.6012824E0,3.1158506E1,3.1591E0,1.5883372E2,2.2089787E1,2.074052E1,1.0556416E2,1.0371546E1,5.4788153E2,6.7213844E1,2.0768787E3,3.2914277E3,1.8546309E1,1.2063014E3,1.5157843E3,8.761564E3,1.0961873E4,3.7243992E3,1.9749512E3,1.2450891E3,2.1584045E2,6.7914966E2,5.9583136E2,3.0471515E2,1.0014884E2,1.3709781E1,2.6766095E0],"tree_param":{"num_deleted":"0","num_feature":"5","num_nodes":"127","size_leaf_vector":"1"}},{"base_weights":[-1.7826955E-1,-3.6040843E-1,-1.7585773E-2,-4.9567336E-1,-2.9443616E-1,-1.1909658E-1,1.10746846E-1,-5.795625E-1,-4.354406E-1,-3.2537797E-1,-2.3808838E-1,-1.6007286E-1,-6.849886E-2,5.866567E-2,2.1700585E-1,-6.4034534E-1,-5.574662E-1,-3.9645272E-1,-4.4745392E-1,-3.4832916E-1,-2.9997092E-1,-2.3634161E-1,-4.0941784E-1,-1.2799075E-1,-1.6574731E-1,-8.477892E-2,-3.8909838E-2,1.8540138E-2,1.00736335E-1,1.8231878E-1,3.476392E-1,-6.680162E-2,-6.17348E-1,-5.6654185E-1,-5.154282E-1,-3.509391E-1,-4.3580598E-1,-4.708914E-1,-4.2390406E-1,-3.698167E-1,-3.3505964E-1,-3.0187324E-1,-3.424791E-2,-2.3932129E-1,-1.6572383E-1,-4.8982495E-1,1.2289585E-1,-1.1795943E-1,-3.940298E-1,-2.0059755E-1,-1.5193035E-1,-5.9181858E-2,-1.1357937E-1,-1.8416451E-2,-8.225211E-2,-2.5944158E-2,5.688904E-2,1.3151163E-1,3.1277668E-2,1.7807075E-1,3.8855344E-1,2.4485444E-1,4.201148E-1,-4.969771E-2,-6.269163E-2,-5.8501948E-2,-5.411569E-2,-4.4349935E-2,-5.875041E-2,-3.5845216E-2,-1.14577245E-2,-4.5831826E-2,-2.2501636E-2,-4.7844302E-2,-3.502517E-2,-4.9579512E-2,-4.1351996E-2,-3.716947E-2,6.9402285E-2,-3.3010297E-2,-4.962441E-2,-2.70358E-2,-3.131499E-2,1.2299674E-2,-6.2643304E-2,-2.3470137E-2,-3.6034565E-2,-2.761815E-2,-1.0466605E-2,-6.0414243E-2,-3.4337323E-2,-1.2766132E-2,4.3801922E-2,-1.2065156E-2,7.371115E-2,-5.3341914E-2,4.99114E-2,-1.895392E-2,-3.369451E-2,-9.095168E-3,-1.7006358E-2,-1.2064366E-2,-2.118004E-3,-1.360562E-2,-2.83797E-3,-5.971303E-3,1.7365542E-3,-1.5336516E-2,-9.988662E-4,-3.0874077E-3,4.1427396E-2,9.984598E-3,3.388038E-3,1.2123815E-2,2.0959154E-2,-4.6751965E-3,8.671987E-3,2.0484237E-2,1.5150848E-2,7.764277E-2,2.5451282E-2,3.0383466E-2,1.2945968E-2,4.5275435E-2,2.6952518E-2],"categories":[],"categories_nodes":[],"categories_segments":[],"categories_sizes":[],"default_left":[0,0,0,0,0,0,0,0,0,0,0,0,0,0,0,0,0,0,0,0,0,0,0,0,0,0,0,0,0,0,0,0,0,0,0,0,0,0,0,0,0,0,0,0,0,0,0,0,0,0,0,0,0,0,0,0,0,0,0,0,0,0,0,0,0,0,0,0,0,0,0,0,0,0,0,0,0,0,0,0,0,0,0,0,0,0,0,0,0,0,0,0,0,0,0,0,0,0,0,0,0,0,0,0,0,0,0,0,0,0,0,0,0,0,0,0,0,0,0,0,0,0,0,0,0],"id":5,"left_children":[1,3,5,7,9,11,13,15,17,19,21,23,25,27,29,31,33,35,37,39,41,43,45,47,49,51,53,55,57,59,61,-1,63,65,67,69,71,73,75,77,79,81,83,85,87,89,91,93,95,97,99,101,103,105,107,109,111,113,115,117,119,121,123,-1,-1,-1,-1,-1,-1,-1,-1,-1,-1,-1,-1,-1,-1,-1,-1,-1,-1,-1,-1,-1,-1,-1,-1,-1,-1,-1,-1,-1,-1,-1,-1,-1,-1,-1,-1,-1,-1,-1,-1,-1,-1,-1,-1,-1,-1,-1,-1,-1,-1,-1,-1,-1,-1,-1,-1,-1,-1,-1,-1,-1,-1],"loss_changes":[1.1961222E3,1.7079688E2,2.8289606E2,3.1472046E1,2.2376099E1,2.5127762E1,5.3064384E1,3.163147E0,1.5362549E0,4.741699E0,1.2705688E0,1.1982574E0,2.611065E0,1.0865593E1,1.4229553E1,2.7954102E-2,4.442749E-1,1.406311E0,1.3397217E0,1.1193237E0,1.9870911E0,9.124756E-1,1.975379E0,2.65197E0,2.7086945E0,2.5736027E0,1.7110925E0,5.6245894E0,6.7131824E0,2.1162567E0,4.819084E0,0E0,1.3891602E-1,4.2315674E-1,1.5734329E0,6.848984E-1,2.0927124E0,1.0976868E0,8.410034E-1,3.5644684E0,1.9982605E0,1.3096313E0,2.797546E0,2.3417969E0,1.2285938E0,4.467306E-1,5.8266336E-1,2.3352432E0,4.787084E0,2.3665237E0,4.4933624E0,4.330598E0,3.1481094E0,1.9373991E0,3.1778908E0,3.3261516E0,1.7465477E0,1.7211075E0,4.1837378E0,1.7083893E0,2.3759289E0,1.8365669E0,1.7756958E0,0E0,0E0,0E0,0E0,0E0,0E0,0E0,0E0,0E0,0E0,0E0,0E0,0E0,0E0,0E0,0E0,0E0,0E0,0E0,0E0,0E0,0E0,0E0,0E0,0E0,0E0,0E0,0E0,0E0,0E0,0E0,0E0,0E0,0E0,0E0,0E0,0E0,0E0,0E0,0E0,0E0,0E0,0E0,0E0,0E0,0E0,0E0,0E0,0E0,0E0,0E0,0E0,0E0,0E0,0E0,0E0,0E0,0E0,0E0,0E0,0E0,0E0],"parents":[2147483647,0,0,1,1,2,2,3,3,4,4,5,5,6,6,7,7,8,8,9,9,10,10,11,11,12,12,13,13,14,14,15,15,16,16,17,17,18,18,19,19,20,20,21,21,22,22,23,23,24,24,25,25,26,26,27,27,28,28,29,29,30,30,32,32,33,33,34,34,35,35,36,36,37,37,38,38,39,39,40,40,41,41,42,42,43,43,44,44,45,45,46,46,47,47,48,48,49,49,50,50,51,51,52,52,53,53,54,54,55,55,56,56,57,57,58,58,59,59,60,60,61,61,62,62],"right_children":[2,4,6,8,10,12,14,16,18,20,22,24,26,28,30,32,34,36,38,40,42,44,46,48,50,52,54,56,58,60,62,-1,64,66,68,70,72,74,76,78,80,82,84,86,88,90,92,94,96,98,100,102,104,106,108,110,112,114,116,118,120,122,124,-1,-1,-1,-1,-1,-1,-1,-1,-1,-1,-1,-1,-1,-1,-1,-1,-1,-1,-1,-1,-1,-1,-1,-1,-1,-1,-1,-1,-1,-1,-1,-1,-1,-1,-1,-1,-1,-1,-1,-1,-1,-1,-1,-1,-1,-1,-1,-1,-1,-1,-1,-1,-1,-1,-1,-1,-1,-1,-1,-1,-1,-1],"split_conditions":[6.5E0,3.1E0,1.4E1,2.25E0,5E0,9.5E0,3.1E1,1.65E0,3E0,4E0,4.86E2,3E0,1.2E1,1.9E1,8.1E1,1.45E0,2.15E0,3.2E1,2.7E0,5E0,6.01E3,1.937E3,6.01E3,3.8E1,1.9E1,3.5E1,1.3E1,4E0,6.3E1,6.2E2,1E1,-6.680162E-2,1E0,6.5E1,5.2E1,2E0,1E0,4.26E2,3E0,5.766E3,4.26E3,7E0,3.41E2,1.327E3,2.7E1,3.18E2,6E0,3.7E1,1.197E3,9.68E2,3.8E1,5E0,4.8E1,2E0,3.4E1,5.15E2,2.7E1,2.4E1,5.2E1,3E0,3.4E1,8.7E1,2E1,-4.969771E-2,-6.269163E-2,-5.8501948E-2,-5.411569E-2,-4.4349935E-2,-5.875041E-2,-3.5845216E-2,-1.14577245E-2,-4.5831826E-2,-2.2501636E-2,-4.7844302E-2,-3.502517E-2,-4.9579512E-2,-4.1351996E-2,-3.716947E-2,6.9402285E-2,-3.3010297E-2,-4.962441E-2,-2.70358E-2,-3.131499E-2,1.2299674E-2,-6.2643304E-2,-2.3470137E-2,-3.6034565E-2,-2.761815E-2,-1.0466605E-2,-6.0414243E-2,-3.4337323E-2,-1.2766132E-2,4.3801922E-2,-1.2065156E-2,7.371115E-2,-5.3341914E-2,4.99114E-2,-1.895392E-2,-3.369451E-2,-9.095168E-3,-1.7006358E-2,-1.2064366E-2,-2.118004E-3,-1.360562E-2,-2.83797E-3,-5.971303E-3,1.7365542E-3,-1.5336516E-2,-9.988662E-4,-3.0874077E-3,4.1427396E-2,9.984598E-3,3.388038E-3,1.2123815E-2,2.0959154E-2,-4.6751965E-3,8.671987E-3,2.0484237E-2,1.5150848E-2,7.764277E-2,2.5451282E-2,3.0383466E-2,1.2945968E-2,4.5275435E-2,2.6952518E-2],"split_indices":[0,0,0,0,0,0,0,0,1,0,3,2,0,0,0,0,0,2,0,3,1,1,1,3,2,2,3,3,2,2,2,0,3,2,2,1,1,2,2,1,1,1,2,1,2,2,0,3,1,1,2,2,3,3,3,2,2,3,1,3,0,1,3,0,0,0,0,0,0,0,0,0,0,0,0,0,0,0,0,0,0,0,0,0,0,0,0,0,0,0,0,0,0,0,0,0,0,0,0,0,0,0,0,0,0,0,0,0,0,0,0,0,0,0,0,0,0,0,0,0,0,0,0,0,0],"split_type":[0,0,0,0,0,0,0,0,0,0,0,0,0,0,0,0,0,0,0,0,0,0,0,0,0,0,0,0,0,0,0,0,0,0,0,0,0,0,0,0,0,0,0,0,0,0,0,0,0,0,0,0,0,0,0,0,0,0,0,0,0,0,0,0,0,0,0,0,0,0,0,0,0,0,0,0,0,0,0,0,0,0,0,0,0,0,0,0,0,0,0,0,0,0,0,0,0,0,0,0,0,0,0,0,0,0,0,0,0,0,0,0,0,0,0,0,0,0,0,0,0,0,0,0,0],"sum_hessian":[4.086886E4,1.9154984E4,2.1713873E4,6.277508E3,1.2877478E4,1.21239375E4,9.589935E3,2.6199502E3,3.6575579E3,8.309676E3,4.567802E3,6.6976885E3,5.426249E3,6.4366597E3,3.1532751E3,6.910421E2,1.9289081E3,8.695465E2,2.7880112E3,4.3591587E3,3.9505166E3,4.524056E3,4.3745354E1,1.0101391E3,5.6875493E3,3.499137E3,1.9271123E3,3.2952273E3,3.1414324E3,2.493557E3,6.597184E2,3.009206E2,3.9012152E2,1.5761533E3,3.5275476E2,4.078123E2,4.617342E2,1.3878198E3,1.4001915E3,1.6539777E3,2.7051812E3,3.922301E3,2.8215603E1,4.3386025E3,1.8545389E2,3.8074013E1,5.6713414E0,9.7482556E2,3.531357E1,1.6108978E3,4.0766514E3,1.8542155E3,1.6449214E3,1.3094122E3,6.177002E2,1.525726E3,1.7695015E3,2.176285E3,9.6514746E2,2.4450571E3,4.84998E1,2.7462454E2,3.850938E2,3.2625633E1,3.574959E2,8.994218E2,6.767315E2,1.8013777E2,1.72617E2,3.9474817E2,1.3064109E1,4.1611856E2,4.561563E1,1.3032734E3,8.454631E1,1.7082132E2,1.2293702E3,1.6517124E3,2.2651958E0,2.6274312E3,7.774996E1,1.0401992E3,2.8821018E3,2.2921494E1,5.294111E0,4.1819043E3,1.5669833E2,6.476548E1,1.2068841E2,1.9627758E1,1.8446255E1,3.4907234E0,2.180618E0,9.726222E2,2.2033274E0,3.0894716E1,4.418851E0,1.4922595E3,1.1863834E2,9.357879E2,3.1408635E3,7.076047E2,1.1466108E3,1.3010815E3,3.438398E2,6.075546E2,7.0185754E2,3.107625E2,3.0693768E2,1.5097484E3,1.5977519E1,6.1603357E2,1.1534679E3,1.9254885E3,2.5079633E2,4.0097287E2,5.6417456E2,1.214387E3,1.2306702E3,1.1225119E1,3.7274685E1,1.8065547E2,9.396908E1,3.1484595E2,7.024786E1],"tree_param":{"num_deleted":"0","num_feature":"5","num_nodes":"125","size_leaf_vector":"1"}},{"base_weights":[-1.6413479E-1,-2.0116943E-1,-1.2591971E-1,-2.2084121E-1,-1.7783718E-1,-1.3750793E-1,-8.3295874E-2,-2.3931763E-1,-2.0523003E-1,-1.654012E-1,-2.0455348E-1,-1.3174392E-1,-2.3023984E-1,1.3470202E-2,-9.86073E-2,-2.6627523E-1,-2.1471277E-1,-1.14954464E-1,-2.1503283E-1,-1.8926597E-1,-1.4057967E-1,-4.198532E-1,-1.9355607E-1,-1.5215418E-1,-1.1047834E-1,-2.562898E-1,-1.7230262E-1,-5.105808E-2,1.4564216E-1,-8.276557E-2,-1.5761994E-1,-2.575733E-1,-3.875694E-1,-2.113498E-1,-4.8595843E-1,1.3819638E-2,-1.4186482E-1,-2.4425729E-1,-2.0234494E-1,-1.8214177E-1,-2.8240255E-1,-1.5050648E-1,-7.437328E-2,-3.877029E-1,-6.82219E-2,-1.5112244E-1,-2.197866E-1,-1.5822935E-1,-8.203491E-2,-1.1127132E-1,6.519769E-1,-2.4285582E-1,-5.7964677E-1,-1.0841404E-1,-2.8188172E-1,2.3844926E-1,-6.318718E-2,9.633389E-2,4.0009743E-1,-1.5050066E-1,-6.347939E-2,-2.1955946E-1,-9.389465E-2,-2.4478247E-2,-2.85307E-2,-4.8232567E-2,-2.990832E-2,-2.1723716E-2,-1.0976458E-2,-5.347207E-2,1.2291054E-2,-2.1786978E-2,2.249912E-2,-2.0034429E-2,-1.111715E-2,-2.8444344E-2,-1.821414E-2,-1.5582432E-3,-2.0669658E-2,-1.8001057E-2,-4.4764053E-2,-3.9573148E-2,-1.4099491E-2,-1.4023307E-2,-2.5844518E-2,-1.0157427E-2,1.8618139E-2,-4.3908305E-2,-1.607603E-2,-2.5999526E-2,-1.0973352E-2,-3.130075E-2,-2.0671252E-2,-1.567466E-2,-3.7393004E-2,-7.2403485E-3,-4.353045E-2,-1.2429099E-2,-7.2675617E-3,1.0269331E-1,3.0810086E-2,-6.064655E-3,-2.557216E-2,-1.0021955E-2,-6.119914E-2,-5.3288233E-2,-8.73984E-3,-1.5902518E-3,-3.0457769E-2,4.3896988E-2,-2.361244E-2,-7.484102E-3,1.4044481E-2,-9.1109425E-3,1.4536074E-2,2.3455149E-2,4.780448E-2,1.0303335E-2,-1.7293911E-2,-1.582177E-3,-8.847054E-3,-1.4581779E-2,-3.3538166E-2,-3.9878E-3,-2.1102114E-2],"categories":[],"categories_nodes":[],"categories_segments":[],"categories_sizes":[],"default_left":[0,0,0,0,0,0,0,0,0,0,0,0,0,0,0,0,0,0,0,0,0,0,0,0,0,0,0,0,0,0,0,0,0,0,0,0,0,0,0,0,0,0,0,0,0,0,0,0,0,0,0,0,0,0,0,0,0,0,0,0,0,0,0,0,0,0,0,0,0,0,0,0,0,0,0,0,0,0,0,0,0,0,0,0,0,0,0,0,0,0,0,0,0,0,0,0,0,0,0,0,0,0,0,0,0,0,0,0,0,0,0,0,0,0,0,0,0,0,0,0,0,0,0,0,0],"id":6,"left_children":[1,3,5,7,9,11,13,15,17,19,21,23,25,27,29,31,33,35,37,39,41,43,45,47,49,51,53,55,57,59,61,63,65,67,69,71,73,75,77,79,81,83,85,87,-1,89,91,93,95,97,99,101,103,105,107,109,111,113,115,117,119,121,123,-1,-1,-1,-1,-1,-1,-1,-1,-1,-1,-1,-1,-1,-1,-1,-1,-1,-1,-1,-1,-1,-1,-1,-1,-1,-1,-1,-1,-1,-1,-1,-1,-1,-1,-1,-1,-1,-1,-1,-1,-1,-1,-1,-1,-1,-1,-1,-1,-1,-1,-1,-1,-1,-1,-1,-1,-1,-1,-1,-1,-1,-1],"loss_changes":[5.7210815E1,9.386597E0,9.820923E0,3.1635132E0,3.0889893E0,8.334473E0,6.309553E0,3.322174E0,5.324066E0,3.7757416E0,6.977623E0,6.3792114E0,1.336029E0,4.9757805E0,3.423603E0,2.4618988E0,2.3317795E0,2.0610065E0,1.9717712E0,2.1180649E0,2.0592537E0,9.503803E-1,3.125908E0,3.1890106E0,4.438141E0,2.590664E0,1.976531E0,1.3921672E0,2.3624349E0,3.77915E0,3.0458279E0,7.345581E-1,1.2013454E0,1.5538101E0,1.0132456E0,5.118578E0,8.600502E-1,4.0552216E0,3.0905151E0,1.6396255E0,3.6383572E0,3.000557E0,2.9441247E0,1.4524918E0,0E0,4.8716373E0,2.070366E0,2.1534119E0,2.0147285E0,3.615944E0,6.696639E-1,1.4037781E0,3.164158E-1,1.5834448E0,6.2879086E-1,1.624255E0,9.056276E-1,1.4984627E0,2.8461218E-1,3.6702929E0,2.689333E0,3.3095055E0,2.4252965E0,0E0,0E0,0E0,0E0,0E0,0E0,0E0,0E0,0E0,0E0,0E0,0E0,0E0,0E0,0E0,0E0,0E0,0E0,0E0,0E0,0E0,0E0,0E0,0E0,0E0,0E0,0E0,0E0,0E0,0E0,0E0,0E0,0E0,0E0,0E0,0E0,0E0,0E0,0E0,0E0,0E0,0E0,0E0,0E0,0E0,0E0,0E0,0E0,0E0,0E0,0E0,0E0,0E0,0E0,0E0,0E0,0E0,0E0,0E0,0E0,0E0,0E0],"parents":[2147483647,0,0,1,1,2,2,3,3,4,4,5,5,6,6,7,7,8,8,9,9,10,10,11,11,12,12,13,13,14,14,15,15,16,16,17,17,18,18,19,19,20,20,21,21,22,22,23,23,24,24,25,25,26,26,27,27,28,28,29,29,30,30,31,31,32,32,33,33,34,34,35,35,36,36,37,37,38,38,39,39,40,40,41,41,42,42,43,43,45,45,46,46,47,47,48,48,49,49,50,50,51,51,52,52,53,53,54,54,55,55,56,56,57,57,58,58,59,59,60,60,61,61,62,62],"right_children":[2,4,6,8,10,12,14,16,18,20,22,24,26,28,30,32,34,36,38,40,42,44,46,48,50,52,54,56,58,60,62,64,66,68,70,72,74,76,78,80,82,84,86,88,-1,90,92,94,96,98,100,102,104,106,108,110,112,114,116,118,120,122,124,-1,-1,-1,-1,-1,-1,-1,-1,-1,-1,-1,-1,-1,-1,-1,-1,-1,-1,-1,-1,-1,-1,-1,-1,-1,-1,-1,-1,-1,-1,-1,-1,-1,-1,-1,-1,-1,-1,-1,-1,-1,-1,-1,-1,-1,-1,-1,-1,-1,-1,-1,-1,-1,-1,-1,-1,-1,-1,-1,-1,-1,-1],"split_conditions":[7E0,2E0,4.25E2,8E0,1.56E2,6.38E2,9.24E2,1.1E1,2.6E1,8E0,7.9E1,2.2E1,5E1,6.01E2,4.015E3,1.5E1,6.2E2,1E0,3.7E1,1.5E1,6.8E1,1.44E2,1.1E1,2.34E2,4.04E2,4.7E1,1.4E2,2E0,1.149E3,6.86E2,2.15E2,2E0,2E0,2.53E2,6E0,1.1E1,1E1,2.2E1,6.8E1,7.28E2,6E0,1.17E2,2.12E2,4.7E1,-6.82219E-2,1.52E2,1.6E1,4.99E2,3.86E2,1.59E2,7.5E1,8E0,6.59E2,1.4E1,4.7E1,7.65E2,1.33E2,7.65E2,7.09E2,7E0,9.3E2,6E1,3.53E2,-2.4478247E-2,-2.85307E-2,-4.8232567E-2,-2.990832E-2,-2.1723716E-2,-1.0976458E-2,-5.347207E-2,1.2291054E-2,-2.1786978E-2,2.249912E-2,-2.0034429E-2,-1.111715E-2,-2.8444344E-2,-1.821414E-2,-1.5582432E-3,-2.0669658E-2,-1.8001057E-2,-4.4764053E-2,-3.9573148E-2,-1.4099491E-2,-1.4023307E-2,-2.5844518E-2,-1.0157427E-2,1.8618139E-2,-4.3908305E-2,-1.607603E-2,-2.5999526E-2,-1.0973352E-2,-3.130075E-2,-2.0671252E-2,-1.567466E-2,-3.7393004E-2,-7.2403485E-3,-4.353045E-2,-1.2429099E-2,-7.2675617E-3,1.0269331E-1,3.0810086E-2,-6.064655E-3,-2.557216E-2,-1.0021955E-2,-6.119914E-2,-5.3288233E-2,-8.73984E-3,-1.5902518E-3,-3.0457769E-2,4.3896988E-2,-2.361244E-2,-7.484102E-3,1.4044481E-2,-9.1109425E-3,1.4536074E-2,2.3455149E-2,4.780448E-2,1.0303335E-2,-1.7293911E-2,-1.582177E-3,-8.847054E-3,-1.4581779E-2,-3.3538166E-2,-3.9878E-3,-2.1102114E-2],"split_indices":[3,3,4,4,1,1,1,2,1,4,4,3,3,4,1,1,2,2,4,1,4,2,2,4,4,3,3,2,2,4,3,1,2,2,4,4,2,2,1,2,4,1,2,2,0,4,2,1,4,2,2,3,1,2,2,1,3,1,4,2,4,3,2,0,0,0,0,0,0,0,0,0,0,0,0,0,0,0,0,0,0,0,0,0,0,0,0,0,0,0,0,0,0,0,0,0,0,0,0,0,0,0,0,0,0,0,0,0,0,0,0,0,0,0,0,0,0,0,0,0,0,0,0,0,0],"split_type":[0,0,0,0,0,0,0,0,0,0,0,0,0,0,0,0,0,0,0,0,0,0,0,0,0,0,0,0,0,0,0,0,0,0,0,0,0,0,0,0,0,0,0,0,0,0,0,0,0,0,0,0,0,0,0,0,0,0,0,0,0,0,0,0,0,0,0,0,0,0,0,0,0,0,0,0,0,0,0,0,0,0,0,0,0,0,0,0,0,0,0,0,0,0,0,0,0,0,0,0,0,0,0,0,0,0,0,0,0,0,0,0,0,0,0,0,0,0,0,0,0,0,0,0,0],"sum_hessian":[4.044053E4,2.053529E4,1.9905244E4,1.1137026E4,9.398264E3,1.5648606E4,4.2566367E3,5.09389E3,6.0431357E3,6.4179907E3,2.980273E3,1.4735126E4,9.134805E2,5.815353E2,3.6751013E3,2.4260437E3,2.6678467E3,5.931801E2,5.4499556E3,3.268681E3,3.1493098E3,1.4302625E2,2.8372466E3,7.51563E3,7.219496E3,6.277883E2,2.8569226E2,3.9117276E2,1.9036253E2,2.899219E3,7.758823E2,2.266559E3,1.5948451E2,2.6369326E3,3.091405E1,1.0261641E2,4.905637E2,1.6443108E3,3.8056448E3,3.039165E3,2.2951593E2,2.737572E3,4.1173767E2,1.296203E2,1.3405955E1,1.0864451E3,1.7508016E3,6.9152334E3,6.003967E2,7.2128486E3,6.647546E0,6.0442816E2,2.3360153E1,1.8172777E2,1.0396448E2,1.49791355E1,3.761936E2,1.6061684E2,2.97457E1,6.410345E2,2.2581846E3,3.9221393E2,3.8366843E2,1.5578855E3,7.086735E2,7.486442E1,8.46201E1,2.4914058E3,1.4552695E2,2.8734575E1,2.1794734E0,4.891596E1,5.370045E1,1.6694984E2,3.2361386E2,9.962215E2,6.4808923E2,8.675803E1,3.7188867E3,3.0166282E3,2.2536785E1,1.2640896E2,1.0310697E2,2.5017583E3,2.3581375E2,3.733694E2,3.8368282E1,1.0492937E2,2.4690924E1,2.978016E2,7.8864343E2,2.1252374E2,1.5382778E3,6.8697363E3,4.5496742E1,5.8563513E2,1.4761613E1,5.391792E3,1.8210568E3,2.2298312E0,4.4177146E0,4.024065E1,5.641875E2,1.7354198E0,2.1624735E1,7.4239693E0,1.743038E2,8.307509E0,9.565697E1,1.058268E1,4.3964553E0,3.5642773E2,1.9765865E1,3.3122375E1,1.2749446E2,1.0805626E1,1.8940075E1,5.1828426E1,5.8920605E2,7.773763E2,1.4808082E3,2.4102017E2,1.5119374E2,2.6349136E2,1.2017707E2],"tree_param":{"num_deleted":"0","num_feature":"5","num_nodes":"125","size_leaf_vector":"1"}},{"base_weights":[3.1242418E-1,5.6802157E-2,3.3085775E-1,-1.0129051E-1,1.1865332E-1,2.6537362E-1,3.4158933E-1,-2.7893266E-1,-5.4373533E-2,7.0201606E-2,1.6111368E-1,2.3419598E-1,2.8144908E-1,3.503314E-1,2.568549E-1,-1.0069994E-1,-3.3541438E-1,-1.3404119E-1,-1.33418925E-2,4.507465E-2,1.21584535E-1,1.4838563E-1,3.102587E-1,2.3742087E-1,-3.970027E-1,3.6933511E-1,2.6660597E-1,3.2209456E-1,3.570878E-1,2.7824953E-1,1.729564E-1,-1.6527428E-1,4.1498166E-1,-5.1959896E-1,-2.8099644E-1,-1.0020986E-1,-3.225188E-1,1.09012306E-1,-8.655241E-2,4.1159242E-2,9.3415216E-2,1.6839036E-1,2.6326684E-2,1.7004733E-1,3.3766862E-2,1.2196701E-1,4.357418E-1,2.5316602E-1,1.4587332E-1,-6.420889E-2,-3.0106807E-2,3.4840629E-1,5.5406713E-1,1.2719476E-1,2.7698392E-1,3.1834978E-1,5.124018E-1,3.661394E-1,3.2715207E-1,2.8036436E-1,3.4527068E-3,1.2568112E-1,2.1978381E-1,2.0902446E-2,-2.434886E-2,3.9311458E-4,5.6406047E-2,4.2694326E-2,-5.831756E-2,-1.5257162E-2,-4.3915097E-2,-1.1036301E-2,6.1429817E-2,-1.5271827E-2,-5.0082374E-2,6.0819695E-3,4.2209398E-2,-4.5603078E-2,-6.2453565E-3,9.434718E-3,-1.3124913E-3,1.5645733E-2,7.992105E-2,-1.1838424E-2,1.7813347E-2,1.5502177E-2,3.9668538E-2,-1.9786974E-2,1.2388905E-2,2.8060108E-2,-2.1300044E-2,6.21456E-2,2.8432429E-2,2.740624E-2,1.8874574E-2,1.0414137E-2,4.6804998E-2,5.6678623E-2,-5.3481635E-2,3.515846E-2,-4.4302408E-2,5.7433672E-2,7.500842E-3,2.1962907E-2,-3.487523E-3,3.0485079E-2,2.4466844E-2,3.533278E-2,2.9899448E-2,5.5136513E-2,2.5928468E-2,3.6831003E-2,3.2015372E-2,3.0834718E-2,3.4256402E-2,2.6083788E-2,3.144923E-2,-4.3065578E-2,2.737536E-2,1.4808252E-2,-7.7792183E-3,7.810304E-2,1.8780574E-2],"categories":[],"categories_nodes":[],"categories_segments":[],"categories_sizes":[],"default_left":[0,0,0,0,0,0,0,0,0,0,0,0,0,0,0,0,0,0,0,0,0,0,0,0,0,0,0,0,0,0,0,0,0,0,0,0,0,0,0,0,0,0,0,0,0,0,0,0,0,0,0,0,0,0,0,0,0,0,0,0,0,0,0,0,0,0,0,0,0,0,0,0,0,0,0,0,0,0,0,0,0,0,0,0,0,0,0,0,0,0,0,0,0,0,0,0,0,0,0,0,0,0,0,0,0,0,0,0,0,0,0,0,0,0,0,0,0,0,0,0,0,0,0],"id":7,"left_children":[1,3,5,7,9,11,13,15,17,19,21,23,25,27,29,31,33,35,37,39,41,43,45,47,49,51,53,55,57,59,61,63,65,67,69,71,73,75,77,79,-1,81,83,85,87,89,91,93,95,-1,97,99,101,103,105,107,109,111,113,115,117,119,121,-1,-1,-1,-1,-1,-1,-1,-1,-1,-1,-1,-1,-1,-1,-1,-1,-1,-1,-1,-1,-1,-1,-1,-1,-1,-1,-1,-1,-1,-1,-1,-1,-1,-1,-1,-1,-1,-1,-1,-1,-1,-1,-1,-1,-1,-1,-1,-1,-1,-1,-1,-1,-1,-1,-1,-1,-1,-1,-1,-1],"loss_changes":[2.0112988E2,2.810008E1,2.7890625E1,6.721798E0,4.2373486E0,2.7462463E0,2.5249023E1,1.6639194E0,2.0925522E0,1.2421246E0,2.0418758E0,3.9918823E0,4.7244873E0,5.800049E0,5.700897E0,1.4675412E0,1.1332273E0,1.3557746E0,3.807436E0,2.2261853E0,1.4078908E0,2.5150948E0,1.9685574E0,2.7099686E0,8.89539E-1,1.8622208E0,4.546097E0,4.1104126E0,6.6569824E0,1.4811859E0,1.4189281E0,1.1648546E0,3.0172956E-1,1.929811E0,1.9783049E0,1.417227E0,9.128759E-1,2.375886E0,2.3384635E0,1.8743361E0,0E0,1.4724131E0,2.3398051E0,2.8455791E0,3.4195106E0,1.9518685E0,1.2562695E0,2.1353073E0,3.7429867E0,0E0,1.8386388E0,1.3636398E0,4.6577072E-1,3.3219914E0,2.5786438E0,3.8775024E0,9.8213387E-1,1.7983398E0,1.579895E0,1.6045532E0,2.5222175E0,1.5042744E0,5.7210045E0,0E0,0E0,0E0,0E0,0E0,0E0,0E0,0E0,0E0,0E0,0E0,0E0,0E0,0E0,0E0,0E0,0E0,0E0,0E0,0E0,0E0,0E0,0E0,0E0,0E0,0E0,0E0,0E0,0E0,0E0,0E0,0E0,0E0,0E0,0E0,0E0,0E0,0E0,0E0,0E0,0E0,0E0,0E0,0E0,0E0,0E0,0E0,0E0,0E0,0E0,0E0,0E0,0E0,0E0,0E0,0E0,0E0,0E0,0E0,0E0],"parents":[2147483647,0,0,1,1,2,2,3,3,4,4,5,5,6,6,7,7,8,8,9,9,10,10,11,11,12,12,13,13,14,14,15,15,16,16,17,17,18,18,19,19,20,20,21,21,22,22,23,23,24,24,25,25,26,26,27,27,28,28,29,29,30,30,31,31,32,32,33,33,34,34,35,35,36,36,37,37,38,38,39,39,41,41,42,42,43,43,44,44,45,45,46,46,47,47,48,48,50,50,51,51,52,52,53,53,54,54,55,55,56,56,57,57,58,58,59,59,60,60,61,61,62,62],"right_children":[2,4,6,8,10,12,14,16,18,20,22,24,26,28,30,32,34,36,38,40,42,44,46,48,50,52,54,56,58,60,62,64,66,68,70,72,74,76,78,80,-1,82,84,86,88,90,92,94,96,-1,98,100,102,104,106,108,110,112,114,116,118,120,122,-1,-1,-1,-1,-1,-1,-1,-1,-1,-1,-1,-1,-1,-1,-1,-1,-1,-1,-1,-1,-1,-1,-1,-1,-1,-1,-1,-1,-1,-1,-1,-1,-1,-1,-1,-1,-1,-1,-1,-1,-1,-1,-1,-1,-1,-1,-1,-1,-1,-1,-1,-1,-1,-1,-1,-1,-1,-1,-1,-1],"split_conditions":[2.3E0,1.7E0,3.5E0,1.35E0,2E0,3.1E1,3.1E1,1E0,2.7E1,3E1,9.92E2,2.5E1,7.2E1,4.8E0,8.1E1,6.9E1,3.9E1,5E0,1.09E2,4.455E3,8.46E2,3.45E2,6.4E1,7E0,9E0,4.9E1,4.7E1,2.353E3,1.5E1,3.01E2,1.2E1,1E0,1.26E0,1.12E0,3.1E1,1.4E1,6E0,5.5E1,2.27E2,8.2E1,9.3415216E-2,6.67E2,1.013E3,4.6E2,4.37E2,2.35E3,2.39E2,2.3E1,1.8E1,-6.420889E-2,1.7E1,5.6E1,7.1E1,1.1E1,2E1,1.3E1,5.5E2,1.069E3,4.3E1,6E0,1.97E2,2.1E1,3.5E1,2.0902446E-2,-2.434886E-2,3.9311458E-4,5.6406047E-2,4.2694326E-2,-5.831756E-2,-1.5257162E-2,-4.3915097E-2,-1.1036301E-2,6.1429817E-2,-1.5271827E-2,-5.0082374E-2,6.0819695E-3,4.2209398E-2,-4.5603078E-2,-6.2453565E-3,9.434718E-3,-1.3124913E-3,1.5645733E-2,7.992105E-2,-1.1838424E-2,1.7813347E-2,1.5502177E-2,3.9668538E-2,-1.9786974E-2,1.2388905E-2,2.8060108E-2,-2.1300044E-2,6.21456E-2,2.8432429E-2,2.740624E-2,1.8874574E-2,1.0414137E-2,4.6804998E-2,5.6678623E-2,-5.3481635E-2,3.515846E-2,-4.4302408E-2,5.7433672E-2,7.500842E-3,2.1962907E-2,-3.487523E-3,3.0485079E-2,2.4466844E-2,3.533278E-2,2.9899448E-2,5.5136513E-2,2.5928468E-2,3.6831003E-2,3.2015372E-2,3.0834718E-2,3.4256402E-2,2.6083788E-2,3.144923E-2,-4.3065578E-2,2.737536E-2,1.4808252E-2,-7.7792183E-3,7.810304E-2,1.8780574E-2],"split_indices":[0,0,0,0,0,1,0,1,1,3,4,4,1,0,0,3,4,4,4,1,1,4,3,4,3,3,4,4,0,3,4,3,0,0,3,1,3,3,1,1,0,4,4,1,4,1,3,3,4,0,3,4,1,3,3,4,3,4,1,3,1,1,1,0,0,0,0,0,0,0,0,0,0,0,0,0,0,0,0,0,0,0,0,0,0,0,0,0,0,0,0,0,0,0,0,0,0,0,0,0,0,0,0,0,0,0,0,0,0,0,0,0,0,0,0,0,0,0,0,0,0,0,0],"split_type":[0,0,0,0,0,0,0,0,0,0,0,0,0,0,0,0,0,0,0,0,0,0,0,0,0,0,0,0,0,0,0,0,0,0,0,0,0,0,0,0,0,0,0,0,0,0,0,0,0,0,0,0,0,0,0,0,0,0,0,0,0,0,0,0,0,0,0,0,0,0,0,0,0,0,0,0,0,0,0,0,0,0,0,0,0,0,0,0,0,0,0,0,0,0,0,0,0,0,0,0,0,0,0,0,0,0,0,0,0,0,0,0,0,0,0,0,0,0,0,0,0,0,0],"sum_hessian":[4.2687348E4,2.8715144E3,3.9815832E4,8.0732916E2,2.0641853E3,5.60991E3,3.420592E4,1.6764148E2,6.396877E2,9.6531415E2,1.0988711E3,1.9137828E3,3.6961274E3,3.1004088E4,3.2018345E3,4.1010933E1,1.2663055E2,2.1669077E2,4.2299692E2,6.495517E2,3.1576245E2,1.0143051E3,8.4565994E1,1.9046754E3,9.10742E0,5.305951E2,3.1655322E3,5.9955815E3,2.5008506E4,2.5494038E3,6.5243054E2,3.7050877E1,3.960057E0,2.6930943E1,9.969961E1,1.85013E2,3.167776E1,1.581677E2,2.6482922E2,6.477454E2,1.8063091E0,2.1121317E2,1.0454927E2,8.526752E2,1.6162991E2,3.46078E1,4.99582E1,1.6236589E3,2.8101654E2,5.010412E0,4.0970078E0,4.7919205E2,5.140306E1,2.2023827E2,2.945294E3,5.882501E3,1.1308053E2,1.919371E4,5.8147954E3,2.5299136E3,1.9490253E1,3.264958E2,3.2593472E2,6.1149607E0,3.0935915E1,1.3271409E0,2.632916E0,1.3353003E0,2.5595642E1,5.610547E1,4.3594135E1,1.832545E2,1.7585014E0,1.717676E1,1.4501E1,1.3810368E2,2.0064016E1,1.5118119E1,2.4971109E2,3.2680347E2,3.2094193E2,2.0851674E2,2.6964254E0,5.363832E1,5.0910954E1,8.0123895E2,5.1436253E1,4.493643E1,1.1669348E2,2.3595657E1,1.1012141E1,2.104373E1,2.8914467E1,1.2235232E3,4.0013565E2,2.499619E2,3.1054644E1,1.8207314E0,2.2762766E0,4.778289E2,1.3631498E0,4.912561E1,2.2774518E0,1.4002301E2,8.021527E1,1.576975E3,1.368319E3,2.089394E3,3.793107E3,9.6974556E1,1.6105972E1,1.8321875E4,8.718357E2,2.6285603E3,3.186235E3,1.6146985E3,9.152151E2,7.2512913E0,1.2238962E1,2.9436038E2,3.213541E1,1.6306992E1,3.0962775E2],"tree_param":{"num_deleted":"0","num_feature":"5","num_nodes":"123","size_leaf_vector":"1"}},{"base_weights":[-1.6358054E-1,-3.2764763E-1,-1.9044785E-3,-4.604578E-1,-2.629375E-1,-7.708032E-2,1.4535742E-1,-5.506901E-1,-4.038429E-1,-2.98741E-1,-2.1518391E-1,-1.3477373E-1,-2.8169213E-2,1.24800764E-1,3.3442354E-1,-6.0488975E-1,-5.3068304E-1,-3.6524478E-1,-4.1578135E-1,-3.196773E-1,-2.78224E-1,-1.6252801E-1,-2.2546859E-1,-1.4362565E-1,-7.1497716E-2,-4.9458917E-2,6.8591824E-3,9.048126E-2,1.7493501E-1,2.3575084E-1,3.9816254E-1,-5.749754E-1,-6.47642E-2,-5.462214E-1,-5.130886E-1,-3.039111E-1,-3.9067033E-1,-4.420129E-1,-3.9513543E-1,-3.3254102E-1,-3.0029655E-1,-2.8078222E-1,4.8535593E-2,-9.026633E-2,-1.9366027E-1,-2.2953951E-1,-1.08411126E-1,-1.0588459E-1,-1.5137064E-1,-3.084651E-1,-5.625969E-2,-5.765321E-2,4.139004E-2,5.076767E-2,-1.9513726E-2,1.07204914E-1,5.776177E-2,1.6689391E-1,2.7685103E-1,2.8731483E-1,1.0279986E-1,3.115733E-1,4.4327444E-1,-5.767693E-2,-1.5011783E-2,-5.4792523E-2,1.6850706E-2,-1.281025E-2,-5.160298E-2,-3.780981E-2,-1.7523142E-2,-4.1111294E-2,-2.7532468E-2,-4.4380028E-2,-2.6512502E-3,-4.2164233E-2,-3.794776E-2,-3.3351123E-2,5.7727184E-2,-2.9434813E-2,-4.690207E-2,-2.8972805E-2,-2.4083382E-2,1.7776605E-2,-4.641541E-2,-1.3256659E-2,4.387695E-3,-1.5438028E-2,-2.3118908E-2,-2.1042598E-2,-2.5408546E-2,-2.1194478E-2,8.769027E-3,-9.88809E-3,-5.438022E-2,-1.7335972E-2,-1.3216159E-2,-4.277305E-2,2.3369921E-2,7.513633E-4,-1.2099902E-2,-2.6016973E-3,-9.887691E-3,2.7984148E-2,-1.926098E-3,6.1192545E-3,-1.2860009E-2,-1.8522797E-2,-1.1567291E-3,9.507829E-3,2.2162529E-2,-7.291646E-3,7.5935908E-3,2.0055506E-2,1.2409885E-2,1.4456685E-2,3.876294E-2,2.641665E-2,7.708301E-2,7.059529E-3,9.1863774E-2,3.7717715E-2,1.170978E-2,4.1100007E-2,7.027041E-2],"categories":[],"categories_nodes":[],"categories_segments":[],"categories_sizes":[],"default_left":[0,0,0,0,0,0,0,0,0,0,0,0,0,0,0,0,0,0,0,0,0,0,0,0,0,0,0,0,0,0,0,0,0,0,0,0,0,0,0,0,0,0,0,0,0,0,0,0,0,0,0,0,0,0,0,0,0,0,0,0,0,0,0,0,0,0,0,0,0,0,0,0,0,0,0,0,0,0,0,0,0,0,0,0,0,0,0,0,0,0,0,0,0,0,0,0,0,0,0,0,0,0,0,0,0,0,0,0,0,0,0,0,0,0,0,0,0,0,0,0,0,0,0,0,0],"id":8,"left_children":[1,3,5,7,9,11,13,15,17,19,21,23,25,27,29,31,33,35,37,39,41,43,45,47,49,51,53,55,57,59,61,63,-1,65,67,69,71,73,75,77,79,81,83,85,87,89,91,93,95,97,99,101,103,105,107,109,111,113,115,117,119,121,123,-1,-1,-1,-1,-1,-1,-1,-1,-1,-1,-1,-1,-1,-1,-1,-1,-1,-1,-1,-1,-1,-1,-1,-1,-1,-1,-1,-1,-1,-1,-1,-1,-1,-1,-1,-1,-1,-1,-1,-1,-1,-1,-1,-1,-1,-1,-1,-1,-1,-1,-1,-1,-1,-1,-1,-1,-1,-1,-1,-1,-1,-1],"loss_changes":[1.0774163E3,1.7313574E2,2.2650313E2,3.3510498E1,2.31156E1,3.8218834E1,2.683284E1,2.4365845E0,1.7195435E0,3.2382202E0,3.1112976E0,3.4705048E0,5.468011E0,1.0717583E1,4.1671143E0,4.9536133E-1,2.2973633E-1,1.3902435E0,1.5013428E0,8.542175E-1,3.2902222E0,2.127411E0,2.2912903E0,1.5772629E0,2.7437584E0,3.3972921E0,3.2115319E0,2.0212917E0,2.030426E0,1.81005E0,1.4640656E0,2.2445679E-1,0E0,1.2799072E0,9.4322205E-1,2.6838093E0,1.4915237E0,9.9417114E-1,5.626526E-1,2.2147217E0,1.404602E0,1.320221E0,2.1564445E0,1.6454165E0,9.4529915E-1,2.1497955E0,3.3735995E0,2.8029842E0,1.8864212E0,3.0728903E0,2.972212E0,5.453328E0,5.4703956E0,1.9537692E0,2.2797394E0,3.3795433E0,2.987164E0,3.3620453E0,2.6372519E0,1.9542093E0,1.9462973E0,1.791234E0,1.9492836E0,0E0,0E0,0E0,0E0,0E0,0E0,0E0,0E0,0E0,0E0,0E0,0E0,0E0,0E0,0E0,0E0,0E0,0E0,0E0,0E0,0E0,0E0,0E0,0E0,0E0,0E0,0E0,0E0,0E0,0E0,0E0,0E0,0E0,0E0,0E0,0E0,0E0,0E0,0E0,0E0,0E0,0E0,0E0,0E0,0E0,0E0,0E0,0E0,0E0,0E0,0E0,0E0,0E0,0E0,0E0,0E0,0E0,0E0,0E0,0E0,0E0,0E0],"parents":[2147483647,0,0,1,1,2,2,3,3,4,4,5,5,6,6,7,7,8,8,9,9,10,10,11,11,12,12,13,13,14,14,15,15,16,16,17,17,18,18,19,19,20,20,21,21,22,22,23,23,24,24,25,25,26,26,27,27,28,28,29,29,30,30,31,31,33,33,34,34,35,35,36,36,37,37,38,38,39,39,40,40,41,41,42,42,43,43,44,44,45,45,46,46,47,47,48,48,49,49,50,50,51,51,52,52,53,53,54,54,55,55,56,56,57,57,58,58,59,59,60,60,61,61,62,62],"right_children":[2,4,6,8,10,12,14,16,18,20,22,24,26,28,30,32,34,36,38,40,42,44,46,48,50,52,54,56,58,60,62,64,-1,66,68,70,72,74,76,78,80,82,84,86,88,90,92,94,96,98,100,102,104,106,108,110,112,114,116,118,120,122,124,-1,-1,-1,-1,-1,-1,-1,-1,-1,-1,-1,-1,-1,-1,-1,-1,-1,-1,-1,-1,-1,-1,-1,-1,-1,-1,-1,-1,-1,-1,-1,-1,-1,-1,-1,-1,-1,-1,-1,-1,-1,-1,-1,-1,-1,-1,-1,-1,-1,-1,-1,-1,-1,-1,-1,-1,-1,-1,-1,-1,-1,-1],"split_conditions":[7E0,3.2E0,1.8E1,2.25E0,5E0,1E1,8.1E1,1.65E0,2E0,4E0,1E0,5.2E1,1.4E1,3.1E1,9E0,8.2E1,5.4E1,2E0,2.7E0,1.5E1,3.262E3,1E0,1.553E3,3E0,1E1,6.9E1,1E1,5.7E1,2.46E2,6.5E1,1.01E2,8.1E1,-6.47642E-2,4.86E2,5.5E1,1E0,2.32E2,6.82E2,6.2E1,3.262E3,2.457E3,1.51E2,3.41E2,6.5E0,7E0,7.5E1,2.67E2,3.8E1,5E0,6.26E2,1.04E2,3.5E1,8.4E1,5.7E1,1.3E1,2.7E1,6.7E1,3.2E1,1E1,4.7E1,2.01E2,1.03E2,3.3E2,-5.767693E-2,-1.5011783E-2,-5.4792523E-2,1.6850706E-2,-1.281025E-2,-5.160298E-2,-3.780981E-2,-1.7523142E-2,-4.1111294E-2,-2.7532468E-2,-4.4380028E-2,-2.6512502E-3,-4.2164233E-2,-3.794776E-2,-3.3351123E-2,5.7727184E-2,-2.9434813E-2,-4.690207E-2,-2.8972805E-2,-2.4083382E-2,1.7776605E-2,-4.641541E-2,-1.3256659E-2,4.387695E-3,-1.5438028E-2,-2.3118908E-2,-2.1042598E-2,-2.5408546E-2,-2.1194478E-2,8.769027E-3,-9.88809E-3,-5.438022E-2,-1.7335972E-2,-1.3216159E-2,-4.277305E-2,2.3369921E-2,7.513633E-4,-1.2099902E-2,-2.6016973E-3,-9.887691E-3,2.7984148E-2,-1.926098E-3,6.1192545E-3,-1.2860009E-2,-1.8522797E-2,-1.1567291E-3,9.507829E-3,2.2162529E-2,-7.291646E-3,7.5935908E-3,2.0055506E-2,1.2409885E-2,1.4456685E-2,3.876294E-2,2.641665E-2,7.708301E-2,7.059529E-3,9.1863774E-2,3.7717715E-2,1.170978E-2,4.1100007E-2,7.027041E-2],"split_indices":[0,0,0,0,0,0,0,0,4,0,3,3,0,0,2,2,2,3,0,3,4,4,4,2,2,3,4,2,2,4,0,2,0,3,2,3,2,3,4,4,4,2,2,0,2,4,2,3,3,4,3,2,3,3,4,3,2,4,3,4,0,4,4,0,0,0,0,0,0,0,0,0,0,0,0,0,0,0,0,0,0,0,0,0,0,0,0,0,0,0,0,0,0,0,0,0,0,0,0,0,0,0,0,0,0,0,0,0,0,0,0,0,0,0,0,0,0,0,0,0,0,0,0,0,0],"split_type":[0,0,0,0,0,0,0,0,0,0,0,0,0,0,0,0,0,0,0,0,0,0,0,0,0,0,0,0,0,0,0,0,0,0,0,0,0,0,0,0,0,0,0,0,0,0,0,0,0,0,0,0,0,0,0,0,0,0,0,0,0,0,0,0,0,0,0,0,0,0,0,0,0,0,0,0,0,0,0,0,0,0,0,0,0,0,0,0,0,0,0,0,0,0,0,0,0,0,0,0,0,0,0,0,0,0,0,0,0,0,0,0,0,0,0,0,0,0,0,0,0,0,0,0,0],"sum_hessian":[4.0616812E4,2.0158828E4,2.0457984E4,6.6022837E3,1.3556544E4,1.3544248E4,6.9137373E3,2.5420532E3,4.0602302E3,7.744674E3,5.8118706E3,6.2134165E3,7.330832E3,6.2372393E3,6.76498E2,6.7748846E2,1.8645648E3,9.6662714E2,3.093603E3,3.8259534E3,3.9187205E3,9.5242365E2,4.859447E3,5.4497593E3,7.636572E2,4.5593306E3,2.771501E3,3.704275E3,2.532964E3,2.6733786E2,4.0916013E2,4.0709067E2,2.7039777E2,9.741826E2,8.9038226E2,2.8707462E2,6.7955255E2,1.3535056E3,1.7400974E3,2.2899026E3,1.5360508E3,3.8884182E3,3.0302242E1,2.8795215E2,6.644715E2,4.6952E3,1.6424646E2,9.3043915E2,4.51932E3,4.497684E1,7.1868036E2,4.182452E3,3.7687878E2,1.0396514E3,1.7318497E3,2.4498345E3,1.2544407E3,2.3501748E3,1.8278941E2,1.9179184E2,7.554603E1,1.4285889E2,2.6630124E2,4.0502295E2,2.0677276E0,9.720986E2,2.084051E0,7.0884247E0,8.832938E2,1.8086386E2,1.0621075E2,5.750694E2,1.04483154E2,1.3476404E3,5.8653316E0,6.3655505E2,1.1035422E3,2.288096E3,1.8065557E0,1.4863921E3,4.9658665E1,3.1718743E3,7.165439E2,2.472359E1,5.578652E0,2.1892795E2,6.90242E1,3.2715942E2,3.3731207E2,2.645086E3,2.0501145E3,1.07441086E2,5.680537E1,9.169992E2,1.3439912E1,2.103439E3,2.4158809E3,3.703987E1,7.9369707E0,3.6248657E2,3.5619382E2,2.3673281E3,1.815124E3,7.5689415E1,3.0118936E2,9.8316833E2,5.6483E1,7.8225845E1,1.6536239E3,2.2167295E3,2.3310478E2,1.5279324E2,1.1016473E3,1.3134072E3,1.0367676E3,8.435877E1,9.843065E1,1.8450499E2,7.286854E0,7.372243E1,1.8236055E0,1.06120895E2,3.6737995E1,2.3913573E2,2.7165499E1],"tree_param":{"num_deleted":"0","num_feature":"5","num_nodes":"125","size_leaf_vector":"1"}},{"base_weights":[-1.5420985E-1,1.1447934E-1,-3.0173835E-1,4.1596323E-1,3.375964E-2,-2.1863016E-1,-4.1824386E-1,6.6899985E-1,3.6007845E-1,1.2718548E-1,-3.0093381E-2,-1.4842892E-1,-2.5616583E-1,-3.8518113E-1,-4.8011455E-1,7.7791977E-1,6.076948E-1,4.103926E-1,2.9849583E-1,1.2930341E-1,-1.877188E-1,-2.0708041E-2,-1.3812472E-1,-1.1898315E-1,-1.7335202E-1,-2.1744479E-1,-2.6895928E-1,-3.6640126E-1,-4.1710255E-1,-4.5896253E-1,-5.2059686E-1,7.933465E-1,8.542437E-2,6.158262E-1,1.3670945E-2,3.956376E-1,5.016192E-1,3.1069863E-1,1.506615E-1,1.4351691E-1,9.726822E-2,-3.6548778E-1,1.2165345E-1,-2.5791952E-3,-6.6553414E-2,-1.230142E-1,-4.5024526E-1,-1.1504964E-1,-4.9941164E-1,-1.2581502E-1,-1.8692775E-1,-2.63708E-1,-2.079622E-1,-2.5789538E-1,-2.901566E-1,-3.0356774E-1,-3.723056E-1,-4.2276022E-1,-3.3029956E-1,-4.4619513E-1,-4.9766576E-1,-5.2311844E-1,-1.5695189E-1,7.1896434E-2,9.2811294E-2,-1.9390281E-2,2.9943494E-2,3.8009074E-2,6.296616E-2,-4.851496E-2,2.902901E-2,4.0146884E-2,-5.5654533E-2,7.122443E-2,4.4082407E-2,2.6833141E-2,3.4638032E-2,6.2044766E-2,7.405007E-3,1.3992475E-2,2.9567862E-2,1.9068364E-2,7.4135247E-3,-2.498194E-2,-6.2149074E-2,3.953886E-2,1.7819823E-3,1.8107238E-3,-3.7042834E-3,4.616056E-3,-8.58011E-3,-2.6818356E-2,-9.322877E-3,-6.3885935E-2,-3.242675E-2,-8.600915E-3,-1.3817339E-2,1.865363E-3,-5.624613E-2,-1.3093478E-2,4.922717E-2,-2.4928166E-2,-1.7627455E-2,-2.9553602E-2,-1.7640535E-2,-1.590514E-2,-2.2135003E-2,-2.8635984E-2,-2.498445E-2,-2.8081749E-2,-3.6191534E-2,-4.130875E-2,-2.7157674E-2,-3.688826E-2,-4.546031E-2,-3.9279573E-2,-4.5051616E-2,2.2763E-2,-3.495499E-2,-4.5615416E-2,-3.822117E-2,-5.1289607E-2,-4.4295833E-2,-4.600718E-2,-5.3273123E-2,3.077668E-2,-2.8301595E-2],"categories":[],"categories_nodes":[],"categories_segments":[],"categories_sizes":[],"default_left":[0,0,0,0,0,0,0,0,0,0,0,0,0,0,0,0,0,0,0,0,0,0,0,0,0,0,0,0,0,0,0,0,0,0,0,0,0,0,0,0,0,0,0,0,0,0,0,0,0,0,0,0,0,0,0,0,0,0,0,0,0,0,0,0,0,0,0,0,0,0,0,0,0,0,0,0,0,0,0,0,0,0,0,0,0,0,0,0,0,0,0,0,0,0,0,0,0,0,0,0,0,0,0,0,0,0,0,0,0,0,0,0,0,0,0,0,0,0,0,0,0,0,0,0,0,0,0],"id":9,"left_children":[1,3,5,7,9,11,13,15,17,19,21,23,25,27,29,31,33,35,37,39,41,43,45,47,49,51,53,55,57,59,61,63,65,67,69,71,73,75,77,79,81,83,85,87,89,91,93,95,97,99,101,103,105,107,109,111,113,115,117,119,121,123,125,-1,-1,-1,-1,-1,-1,-1,-1,-1,-1,-1,-1,-1,-1,-1,-1,-1,-1,-1,-1,-1,-1,-1,-1,-1,-1,-1,-1,-1,-1,-1,-1,-1,-1,-1,-1,-1,-1,-1,-1,-1,-1,-1,-1,-1,-1,-1,-1,-1,-1,-1,-1,-1,-1,-1,-1,-1,-1,-1,-1,-1,-1,-1,-1],"loss_changes":[1.5896763E3,3.4592084E2,2.5057568E2,4.2211243E1,6.690144E1,3.978302E1,2.1861694E1,3.145813E0,7.503357E0,3.0608063E0,6.7519197E0,3.8450394E0,4.8187866E0,4.061035E0,2.9715576E0,1.979065E0,1.6885681E0,1.6212006E0,1.9562225E0,2.0455704E0,1.7397144E0,5.095254E0,2.455284E0,3.5606155E0,1.8161316E0,1.0201187E0,1.65979E0,1.5318604E0,1.135437E0,9.9902344E-1,1.0910034E0,1.2102661E0,3.7464446E-1,8.9094543E-1,9.3656594E-1,6.710663E0,2.0481987E0,1.4561539E0,3.0709987E0,1.66996E0,2.9964943E0,4.3180728E-1,3.339967E-1,3.1336315E0,3.7729597E0,2.1764517E0,3.6799717E-1,1.5960007E0,8.08938E-1,2.0780058E0,1.4276199E0,1.0956898E0,1.299469E0,1.04422E0,1.5929108E0,1.2411118E0,9.727173E-1,1.84729E0,1.8349953E0,1.0158386E0,2.7630615E-1,5.246277E-1,6.869167E-1,0E0,0E0,0E0,0E0,0E0,0E0,0E0,0E0,0E0,0E0,0E0,0E0,0E0,0E0,0E0,0E0,0E0,0E0,0E0,0E0,0E0,0E0,0E0,0E0,0E0,0E0,0E0,0E0,0E0,0E0,0E0,0E0,0E0,0E0,0E0,0E0,0E0,0E0,0E0,0E0,0E0,0E0,0E0,0E0,0E0,0E0,0E0,0E0,0E0,0E0,0E0,0E0,0E0,0E0,0E0,0E0,0E0,0E0,0E0,0E0,0E0,0E0,0E0,0E0],"parents":[2147483647,0,0,1,1,2,2,3,3,4,4,5,5,6,6,7,7,8,8,9,9,10,10,11,11,12,12,13,13,14,14,15,15,16,16,17,17,18,18,19,19,20,20,21,21,22,22,23,23,24,24,25,25,26,26,27,27,28,28,29,29,30,30,31,31,32,32,33,33,34,34,35,35,36,36,37,37,38,38,39,39,40,40,41,41,42,42,43,43,44,44,45,45,46,46,47,47,48,48,49,49,50,50,51,51,52,52,53,53,54,54,55,55,56,56,57,57,58,58,59,59,60,60,61,61,62,62],"right_children":[2,4,6,8,10,12,14,16,18,20,22,24,26,28,30,32,34,36,38,40,42,44,46,48,50,52,54,56,58,60,62,64,66,68,70,72,74,76,78,80,82,84,86,88,90,92,94,96,98,100,102,104,106,108,110,112,114,116,118,120,122,124,126,-1,-1,-1,-1,-1,-1,-1,-1,-1,-1,-1,-1,-1,-1,-1,-1,-1,-1,-1,-1,-1,-1,-1,-1,-1,-1,-1,-1,-1,-1,-1,-1,-1,-1,-1,-1,-1,-1,-1,-1,-1,-1,-1,-1,-1,-1,-1,-1,-1,-1,-1,-1,-1,-1,-1,-1,-1,-1,-1,-1,-1,-1,-1,-1],"split_conditions":[4.8E0,2.3E0,1.2E1,1.55E0,3.3E0,6.5E0,2.6E1,1.35E0,2E0,1.149E3,9.12E2,5.5E0,7.5E0,1.8E1,5.1E1,3.86E2,6.78E2,7.09E2,9.47E2,3E0,2.15E2,9.2E1,3.38E3,4.86E2,7E0,1E0,1E1,1E0,7.79E2,1.4E1,3.01E2,3.1E1,5.5E2,1E0,8.46E2,6.86E2,1.8E1,3.9E1,5E0,3.37E2,7E0,3.86E2,3.86E2,4.2E0,3.5E0,9.61E2,1.14E2,2.7E1,2.7E1,9.9E1,1.5E1,5.6E1,9E0,1E0,4.75E2,1.3E1,4.38E2,1.9E1,7.98E2,1.99E2,1.56E2,1E0,3.86E2,7.1896434E-2,9.2811294E-2,-1.9390281E-2,2.9943494E-2,3.8009074E-2,6.296616E-2,-4.851496E-2,2.902901E-2,4.0146884E-2,-5.5654533E-2,7.122443E-2,4.4082407E-2,2.6833141E-2,3.4638032E-2,6.2044766E-2,7.405007E-3,1.3992475E-2,2.9567862E-2,1.9068364E-2,7.4135247E-3,-2.498194E-2,-6.2149074E-2,3.953886E-2,1.7819823E-3,1.8107238E-3,-3.7042834E-3,4.616056E-3,-8.58011E-3,-2.6818356E-2,-9.322877E-3,-6.3885935E-2,-3.242675E-2,-8.600915E-3,-1.3817339E-2,1.865363E-3,-5.624613E-2,-1.3093478E-2,4.922717E-2,-2.4928166E-2,-1.7627455E-2,-2.9553602E-2,-1.7640535E-2,-1.590514E-2,-2.2135003E-2,-2.8635984E-2,-2.498445E-2,-2.8081749E-2,-3.6191534E-2,-4.130875E-2,-2.7157674E-2,-3.688826E-2,-4.546031E-2,-3.9279573E-2,-4.5051616E-2,2.2763E-2,-3.495499E-2,-4.5615416E-2,-3.822117E-2,-5.1289607E-2,-4.4295833E-2,-4.600718E-2,-5.3273123E-2,3.077668E-2,-2.8301595E-2],"split_indices":[0,0,0,0,0,0,0,0,0,2,4,0,0,0,0,3,2,4,4,0,3,2,4,3,2,3,0,2,4,3,3,3,3,2,2,4,3,2,2,3,2,4,3,0,0,4,3,2,2,3,2,4,2,4,4,0,2,4,4,4,2,2,3,0,0,0,0,0,0,0,0,0,0,0,0,0,0,0,0,0,0,0,0,0,0,0,0,0,0,0,0,0,0,0,0,0,0,0,0,0,0,0,0,0,0,0,0,0,0,0,0,0,0,0,0,0,0,0,0,0,0,0,0,0,0,0,0],"split_type":[0,0,0,0,0,0,0,0,0,0,0,0,0,0,0,0,0,0,0,0,0,0,0,0,0,0,0,0,0,0,0,0,0,0,0,0,0,0,0,0,0,0,0,0,0,0,0,0,0,0,0,0,0,0,0,0,0,0,0,0,0,0,0,0,0,0,0,0,0,0,0,0,0,0,0,0,0,0,0,0,0,0,0,0,0,0,0,0,0,0,0,0,0,0,0,0,0,0,0,0,0,0,0,0,0,0,0,0,0,0,0,0,0,0,0,0,0,0,0,0,0,0,0,0,0,0,0],"sum_hessian":[4.0101656E4,1.4214123E4,2.5887531E4,3.0010823E3,1.1213041E4,1.5111064E4,1.0776468E4,5.4091986E2,2.4601626E3,4.551935E3,6.661106E3,5.2664385E3,9.844626E3,7.0280264E3,3.7484412E3,1.905978E2,3.5032208E2,1.3508384E3,1.1093242E3,4.522111E3,2.982455E1,6.129767E3,5.313385E2,2.4168215E3,2.8496172E3,2.4493481E3,7.395278E3,4.432688E3,2.5953381E3,2.4701333E3,1.2783079E3,1.863019E2,4.2958965E0,3.455552E2,4.76687E0,1.1673651E3,1.8347322E2,1.02372076E3,8.560342E1,3.12993E3,1.3921807E3,1.8825695E1,1.0998856E1,4.393487E3,1.7362805E3,5.0813266E2,2.3205822E1,2.3933772E3,2.3444324E1,6.353018E2,2.2143152E3,4.12084E2,2.037264E3,4.8677397E3,2.527538E3,3.8525375E2,4.0474343E3,2.4328958E3,1.6244238E2,1.8668326E3,6.033007E2,1.2690693E3,9.238472E0,1.2412689E2,6.2175003E1,1.9043239E0,2.3915725E0,2.0734814E1,3.248204E2,1.4315453E0,3.3353245E0,1.1608345E3,6.5306396E0,3.869585E1,1.4477737E2,4.7191068E2,5.5181006E2,1.1007304E1,7.4596115E1,3.0596194E3,7.031055E1,2.7488776E2,1.117293E3,1.4327862E1,4.4978337E0,2.2525597E0,8.746296E0,2.7458152E3,1.6476716E3,2.5304666E2,1.4832338E3,8.514513E1,4.2298752E2,7.6624246E0,1.5543398E1,1.0630459E3,1.3303312E3,2.6200557E0,2.082427E1,6.308644E2,4.437442E0,3.198442E2,1.8944711E3,3.0024002E2,1.11844E2,4.4057153E2,1.5966925E3,1.0656151E3,3.8021245E3,2.2408176E3,2.867204E2,8.440033E1,3.008534E2,3.8910754E3,1.56359E2,1.1771885E3,1.2557073E3,5.0568104E0,1.5738556E2,1.6100929E3,2.5673975E2,4.6536887E2,1.3793185E2,1.7436124E2,1.0947081E3,1.6637864E0,7.574686E0],"tree_param":{"num_deleted":"0","num_feature":"5","num_nodes":"127","size_leaf_vector":"1"}},{"base_weights":[2.8478837E-1,6.627127E-2,3.0523068E-1,-1.8739489E-1,1.0548708E-1,2.319422E-1,3.155849E-1,-5.8958834E-1,-1.711729E-1,2.3956396E-2,1.3321716E-1,2.2948344E-1,4.9543422E-1,3.2499605E-1,2.5973397E-1,-1.1865545E-2,-6.316737E-2,9.099841E-2,-1.8575968E-1,-7.7281356E-2,6.046549E-2,1.6982019E-1,1.0171356E-1,2.1894062E-1,2.685058E-1,3.7901688E-1,6.5780526E-1,2.9334077E-1,3.331766E-1,2.717875E-1,1.8085006E-1,-1.4182949E-1,2.9867908E-1,-2.7301884E-1,-1.3364701E-1,-4.0419485E-2,-2.0109181E-1,2.0756659E-1,3.365592E-2,1.1076324E-1,2.1191388E-1,8.419577E-2,2.6840752E-1,2.2394462E-1,8.102166E-2,4.2867205E-1,2.2816983E-1,5.929493E-1,1.8527259E-1,7.495834E-1,4.9545546E-3,2.646052E-1,3.1283897E-1,3.1975317E-1,3.4433717E-1,2.4703895E-1,2.9528236E-1,2.50696E-1,1.1896622E-1,-3.3103243E-2,8.5248105E-2,4.480768E-2,-4.7261722E-2,-3.9915767E-2,-1.745778E-2,8.584859E-3,-1.720277E-2,-1.4943703E-3,-4.083249E-2,-1.11744E-2,-6.6469595E-2,2.1944796E-3,4.005863E-2,-5.6400757E-2,4.400036E-3,6.992087E-4,1.4800707E-2,2.3992194E-2,8.287918E-3,-2.3352934E-2,9.169194E-3,5.4495007E-2,1.7374389E-2,2.1968743E-2,3.615297E-2,-2.2184316E-3,2.544844E-2,5.115484E-2,2.6950106E-2,2.466648E-2,8.01927E-3,2.590965E-3,8.155758E-2,4.4144873E-2,-3.1961236E-2,3.7032872E-2,1.17680006E-1,3.0007279E-2,2.3912987E-2,5.5717207E-2,3.0917129E-2,3.0603265E-2,3.3743404E-2,4.8852723E-2,3.428122E-2,2.5282467E-2,4.9796974E-4,3.0808821E-2,1.7442346E-2,1.8908406E-2,3.5251383E-2,5.711864E-3,1.5785314E-2],"categories":[],"categories_nodes":[],"categories_segments":[],"categories_sizes":[],"default_left":[0,0,0,0,0,0,0,0,0,0,0,0,0,0,0,0,0,0,0,0,0,0,0,0,0,0,0,0,0,0,0,0,0,0,0,0,0,0,0,0,0,0,0,0,0,0,0,0,0,0,0,0,0,0,0,0,0,0,0,0,0,0,0,0,0,0,0,0,0,0,0,0,0,0,0,0,0,0,0,0,0,0,0,0,0,0,0,0,0,0,0,0,0,0,0,0,0,0,0,0,0,0,0,0,0,0,0,0,0,0,0,0,0],"id":10,"left_children":[1,3,5,7,9,11,13,15,17,19,21,23,25,27,29,-1,-1,31,33,35,37,39,41,43,45,47,49,51,53,55,57,59,61,63,65,67,69,71,73,75,77,79,81,83,85,87,89,91,93,95,-1,97,99,101,103,105,107,109,111,-1,-1,-1,-1,-1,-1,-1,-1,-1,-1,-1,-1,-1,-1,-1,-1,-1,-1,-1,-1,-1,-1,-1,-1,-1,-1,-1,-1,-1,-1,-1,-1,-1,-1,-1,-1,-1,-1,-1,-1,-1,-1,-1,-1,-1,-1,-1,-1,-1,-1,-1,-1,-1,-1],"loss_changes":[1.930188E2,3.6808052E1,2.991455E1,3.1321049E0,7.2397423E0,3.058075E0,1.8114258E1,2.977047E-1,1.8438444E0,3.0143754E0,2.7390938E0,1.9374542E0,5.8994484E-1,7.5742188E0,4.7028503E0,0E0,0E0,1.29232E0,2.0228853E0,9.788705E-1,2.3554144E0,2.7214584E0,3.7360191E0,2.6220856E0,6.5415726E0,1.0597348E0,9.2197514E-1,3.3306274E0,3.4157715E0,2.4467163E0,2.846384E0,2.7025015E0,1.8232518E0,2.0210924E0,2.4199367E0,1.5675595E0,1.9704812E0,3.2928588E0,3.1647675E0,1.7829785E0,2.3060474E0,2.7989864E0,3.0976763E0,2.0825348E0,2.43157E0,2.5744286E0,2.232872E0,1.6144028E0,2.2444406E0,1.9714632E0,0E0,2.159317E0,3.075348E0,2.4920654E0,2.6552734E0,2.9628448E0,3.3788452E0,1.8887062E0,8.441267E-1,0E0,0E0,0E0,0E0,0E0,0E0,0E0,0E0,0E0,0E0,0E0,0E0,0E0,0E0,0E0,0E0,0E0,0E0,0E0,0E0,0E0,0E0,0E0,0E0,0E0,0E0,0E0,0E0,0E0,0E0,0E0,0E0,0E0,0E0,0E0,0E0,0E0,0E0,0E0,0E0,0E0,0E0,0E0,0E0,0E0,0E0,0E0,0E0,0E0,0E0,0E0,0E0,0E0,0E0],"parents":[2147483647,0,0,1,1,2,2,3,3,4,4,5,5,6,6,7,7,8,8,9,9,10,10,11,11,12,12,13,13,14,14,17,17,18,18,19,19,20,20,21,21,22,22,23,23,24,24,25,25,26,26,27,27,28,28,29,29,30,30,31,31,32,32,33,33,34,34,35,35,36,36,37,37,38,38,39,39,40,40,41,41,42,42,43,43,44,44,45,45,46,46,47,47,48,48,49,49,51,51,52,52,53,53,54,54,55,55,56,56,57,57,58,58],"right_children":[2,4,6,8,10,12,14,16,18,20,22,24,26,28,30,-1,-1,32,34,36,38,40,42,44,46,48,50,52,54,56,58,60,62,64,66,68,70,72,74,76,78,80,82,84,86,88,90,92,94,96,-1,98,100,102,104,106,108,110,112,-1,-1,-1,-1,-1,-1,-1,-1,-1,-1,-1,-1,-1,-1,-1,-1,-1,-1,-1,-1,-1,-1,-1,-1,-1,-1,-1,-1,-1,-1,-1,-1,-1,-1,-1,-1,-1,-1,-1,-1,-1,-1,-1,-1,-1,-1,-1,-1,-1,-1,-1,-1,-1,-1],"split_conditions":[2.5E0,1.55E0,3.5E0,1.18E0,1.85E0,1.015E3,2.3E1,1.1E0,1E0,1E1,3.9E1,1.48E2,3.1E0,4.8E0,8.1E1,-1.1865545E-2,-6.316737E-2,1.45E0,3.8E1,1.8E0,6E1,7E0,9.92E2,1.31E2,1.77E2,2.8E0,1.272E3,2.4E1,2.9E1,2.2E1,1.4E1,8.08E2,2.02E2,6.4E1,5.6E1,4E0,1.89E2,3.2E1,2.9E1,3E0,3.13E2,4.1E1,1.136E3,2.048E3,1.31E2,1.6E2,3.4E0,1.149E3,3.78E2,4.99E2,4.9545546E-3,3.8E1,2.5E1,3.5E1,3E1,2E1,2.46E2,4E0,5E0,-3.3103243E-2,8.5248105E-2,4.480768E-2,-4.7261722E-2,-3.9915767E-2,-1.745778E-2,8.584859E-3,-1.720277E-2,-1.4943703E-3,-4.083249E-2,-1.11744E-2,-6.6469595E-2,2.1944796E-3,4.005863E-2,-5.6400757E-2,4.400036E-3,6.992087E-4,1.4800707E-2,2.3992194E-2,8.287918E-3,-2.3352934E-2,9.169194E-3,5.4495007E-2,1.7374389E-2,2.1968743E-2,3.615297E-2,-2.2184316E-3,2.544844E-2,5.115484E-2,2.6950106E-2,2.466648E-2,8.01927E-3,2.590965E-3,8.155758E-2,4.4144873E-2,-3.1961236E-2,3.7032872E-2,1.17680006E-1,3.0007279E-2,2.3912987E-2,5.5717207E-2,3.0917129E-2,3.0603265E-2,3.3743404E-2,4.8852723E-2,3.428122E-2,2.5282467E-2,4.9796974E-4,3.0808821E-2,1.7442346E-2,1.8908406E-2,3.5251383E-2,5.711864E-3,1.5785314E-2],"split_indices":[0,0,0,0,0,2,0,0,2,1,2,2,0,0,0,0,0,0,2,0,1,2,4,2,2,0,1,2,4,4,2,1,4,1,2,4,2,1,4,1,4,2,4,1,4,4,0,2,4,1,0,1,2,2,4,4,2,2,4,0,0,0,0,0,0,0,0,0,0,0,0,0,0,0,0,0,0,0,0,0,0,0,0,0,0,0,0,0,0,0,0,0,0,0,0,0,0,0,0,0,0,0,0,0,0,0,0,0,0,0,0,0,0],"split_type":[0,0,0,0,0,0,0,0,0,0,0,0,0,0,0,0,0,0,0,0,0,0,0,0,0,0,0,0,0,0,0,0,0,0,0,0,0,0,0,0,0,0,0,0,0,0,0,0,0,0,0,0,0,0,0,0,0,0,0,0,0,0,0,0,0,0,0,0,0,0,0,0,0,0,0,0,0,0,0,0,0,0,0,0,0,0,0,0,0,0,0,0,0,0,0,0,0,0,0,0,0,0,0,0,0,0,0,0,0,0,0,0,0],"sum_hessian":[4.3213605E4,3.6971606E3,3.9516445E4,4.9453024E2,3.2026304E3,4.8946934E3,3.462175E4,1.7802624E1,4.7672763E2,8.1329175E2,2.3893386E3,4.8512944E3,4.3398903E1,2.9624982E4,4.9967676E3,1.7737577E0,1.6028866E1,2.4850235E1,4.5187738E2,2.152628E2,5.9802893E2,1.1031885E3,1.2861503E3,3.824599E3,1.0266956E3,2.721818E1,1.6180721E1,6.091254E3,2.3533729E4,4.3323384E3,6.64429E2,1.1865296E1,1.298494E1,1.6737692E2,2.8450046E2,1.6689877E2,4.8364017E1,9.1151054E1,5.068779E2,4.6060144E2,6.42587E2,1.1652046E3,1.2094569E2,3.6900906E3,1.345084E2,2.0460834E2,8.220872E2,1.195595E1,1.526223E1,1.3857474E1,2.3232474E0,2.4682427E3,3.6230112E3,1.0697228E4,1.2836501E4,2.1154854E3,2.2168533E3,3.1070117E2,3.537278E2,1.0528876E1,1.3364198E0,1.1228981E1,1.7559586E0,7.202803E1,9.534889E1,4.215921E1,2.4234126E2,1.5706346E2,9.835316E0,4.15897E1,6.774316E0,4.703371E1,4.4117344E1,7.713227E0,4.9916467E2,1.2196435E2,3.3863712E2,5.2727765E2,1.1530932E2,2.6162292E1,1.1390422E3,2.9630087E1,9.13156E1,3.5818567E3,1.0823388E2,8.48794E1,4.9629005E1,1.3309515E2,7.1513176E1,7.301609E2,9.192633E1,3.6854153E0,8.2705345E0,1.0208256E1,5.053974E0,8.32973E0,5.5277443E0,1.0272676E3,1.4409751E3,5.134901E1,3.5716624E3,6.033489E3,4.663739E3,1.3099954E2,1.2705502E4,2.0660579E3,4.9427605E1,2.003065E3,2.1378825E2,1.9534885E2,1.1535234E2,1.3750394E2,2.1622388E2],"tree_param":{"num_deleted":"0","num_feature":"5","num_nodes":"113","size_leaf_vector":"1"}},{"base_weights":[-1.5383497E-1,-3.2488197E-1,-8.122179E-3,-4.514256E-1,-2.5728455E-1,-9.682898E-2,1.0188048E-1,-5.3717315E-1,-3.9770913E-1,-2.8702405E-1,-2.0666732E-1,-1.3516316E-1,-4.951528E-2,5.731225E-2,1.9247541E-1,-5.9327596E-1,-5.1609486E-1,-4.123613E-1,-3.79509E-1,-3.1115592E-1,-2.6357815E-1,-2.051345E-1,-4.2818812E-1,-1.2633719E-1,-1.9240871E-1,-6.657818E-2,-1.90729E-2,2.0893289E-2,8.44842E-2,1.7005931E-1,3.306071E-1,-5.5936486E-1,-6.132022E-1,-5.2395E-1,-4.3746868E-1,-3.612277E-1,-4.2824963E-1,-4.057485E-1,-3.5205537E-1,-3.0780873E-1,-4.7113374E-1,-2.652652E-1,1.9442989E-1,-2.0715779E-1,-1.011909E-1,-5.9750617E-1,-2.637068E-1,-1.0710937E-1,-1.5231632E-1,-3.375964E-1,-1.7439015E-1,-4.379375E-2,-9.2153296E-2,-3.698874E-2,6.5329544E-2,1.9604385E-2,5.419885E-1,7.951356E-2,1.7321573E-1,1.9213414E-1,1.4655328E-1,3.160667E-1,6.479026E-1,-5.8520038E-2,-4.0064666E-2,-5.6797888E-2,-6.356284E-2,-5.1327106E-2,-5.6457203E-2,-6.0672145E-2,-4.0044278E-2,-3.7340194E-2,-2.7416518E-2,-4.5352537E-2,-4.0762123E-2,-3.7176337E-2,-4.474483E-2,6.057095E-2,-3.5643313E-2,-3.45662E-2,-2.960132E-2,1.0991266E-2,-5.1172383E-2,-2.2973252E-2,-2.7722789E-2,3.4796257E-2,-4.8667856E-2,-1.5558839E-2,-2.1139158E-2,1.1322967E-2,-3.2813348E-2,3.1219113E-3,-6.6449285E-2,3.2181945E-2,-3.917226E-2,-5.8374256E-3,-1.2031433E-2,-2.0974435E-2,-1.2173804E-2,-1.208301E-2,-4.7726534E-2,-2.3491003E-2,-1.4658252E-2,-1.1007435E-2,-2.1751544E-3,-1.0689437E-2,6.546173E-4,-1.0591771E-4,-7.061427E-3,-3.6977052E-3,1.6261416E-2,5.189346E-3,1.6543843E-4,7.172804E-2,2.9793052E-2,9.235459E-3,1.1710929E-3,4.055547E-2,1.1336537E-2,1.8074034E-2,3.8753495E-2,1.1181149E-2,1.8404445E-2,2.9841984E-2,5.0721485E-2,8.40297E-2,-3.175502E-2],"categories":[],"categories_nodes":[],"categories_segments":[],"categories_sizes":[],"default_left":[0,0,0,0,0,0,0,0,0,0,0,0,0,0,0,0,0,0,0,0,0,0,0,0,0,0,0,0,0,0,0,0,0,0,0,0,0,0,0,0,0,0,0,0,0,0,0,0,0,0,0,0,0,0,0,0,0,0,0,0,0,0,0,0,0,0,0,0,0,0,0,0,0,0,0,0,0,0,0,0,0,0,0,0,0,0,0,0,0,0,0,0,0,0,0,0,0,0,0,0,0,0,0,0,0,0,0,0,0,0,0,0,0,0,0,0,0,0,0,0,0,0,0,0,0,0,0],"id":11,"left_children":[1,3,5,7,9,11,13,15,17,19,21,23,25,27,29,31,33,35,37,39,41,43,45,47,49,51,53,55,57,59,61,63,65,67,69,71,73,75,77,79,81,83,85,87,89,91,93,95,97,99,101,103,105,107,109,111,113,115,117,119,121,123,125,-1,-1,-1,-1,-1,-1,-1,-1,-1,-1,-1,-1,-1,-1,-1,-1,-1,-1,-1,-1,-1,-1,-1,-1,-1,-1,-1,-1,-1,-1,-1,-1,-1,-1,-1,-1,-1,-1,-1,-1,-1,-1,-1,-1,-1,-1,-1,-1,-1,-1,-1,-1,-1,-1,-1,-1,-1,-1,-1,-1,-1,-1,-1,-1],"loss_changes":[9.958147E2,1.5710254E2,2.1054898E2,2.9256714E1,1.7978027E1,2.1657822E1,3.8881157E1,2.6046753E0,8.935547E-1,4.1870117E0,1.4191437E0,3.309288E0,2.776558E0,6.3885536E0,9.776978E0,1.0676575E-1,8.8064575E-1,1.6082764E0,1.1313171E0,1.8430176E0,3.0136719E0,9.0641785E-1,6.66204E-1,2.8406906E0,2.2418404E0,1.9926748E0,2.9090717E0,1.8435332E0,1.6172447E0,1.390686E0,1.83601E0,8.223419E-1,5.3604126E-2,4.1671753E-1,8.178482E-1,4.496231E-1,6.755066E-1,1.1060333E0,3.8718033E0,1.5227051E0,1.8062916E0,1.5599976E0,1.7008882E0,9.112854E-1,4.2292967E0,6.013298E-1,1.3848789E0,2.1103668E0,4.24218E0,2.8495798E0,1.2856884E0,2.647892E0,2.3482542E0,1.9163821E0,3.35952E0,1.5966011E0,7.6098084E-2,3.049427E0,2.6700683E0,3.0622368E0,1.7097778E0,1.2819481E0,3.6901832E0,0E0,0E0,0E0,0E0,0E0,0E0,0E0,0E0,0E0,0E0,0E0,0E0,0E0,0E0,0E0,0E0,0E0,0E0,0E0,0E0,0E0,0E0,0E0,0E0,0E0,0E0,0E0,0E0,0E0,0E0,0E0,0E0,0E0,0E0,0E0,0E0,0E0,0E0,0E0,0E0,0E0,0E0,0E0,0E0,0E0,0E0,0E0,0E0,0E0,0E0,0E0,0E0,0E0,0E0,0E0,0E0,0E0,0E0,0E0,0E0,0E0,0E0,0E0,0E0],"parents":[2147483647,0,0,1,1,2,2,3,3,4,4,5,5,6,6,7,7,8,8,9,9,10,10,11,11,12,12,13,13,14,14,15,15,16,16,17,17,18,18,19,19,20,20,21,21,22,22,23,23,24,24,25,25,26,26,27,27,28,28,29,29,30,30,31,31,32,32,33,33,34,34,35,35,36,36,37,37,38,38,39,39,40,40,41,41,42,42,43,43,44,44,45,45,46,46,47,47,48,48,49,49,50,50,51,51,52,52,53,53,54,54,55,55,56,56,57,57,58,58,59,59,60,60,61,61,62,62],"right_children":[2,4,6,8,10,12,14,16,18,20,22,24,26,28,30,32,34,36,38,40,42,44,46,48,50,52,54,56,58,60,62,64,66,68,70,72,74,76,78,80,82,84,86,88,90,92,94,96,98,100,102,104,106,108,110,112,114,116,118,120,122,124,126,-1,-1,-1,-1,-1,-1,-1,-1,-1,-1,-1,-1,-1,-1,-1,-1,-1,-1,-1,-1,-1,-1,-1,-1,-1,-1,-1,-1,-1,-1,-1,-1,-1,-1,-1,-1,-1,-1,-1,-1,-1,-1,-1,-1,-1,-1,-1,-1,-1,-1,-1,-1,-1,-1,-1,-1,-1,-1,-1,-1,-1,-1,-1,-1],"split_conditions":[6.5E0,3.2E0,1.4E1,2.25E0,5E0,9.5E0,3.1E1,1.65E0,2.8E0,4E0,1.015E3,1.81E2,1.2E1,1.8E1,1.01E2,3.2E1,3.28E2,2E0,6E1,4.26E3,3.38E3,5.65E2,6.78E2,1.23E2,1.99E2,3.5E1,2.73E2,1.149E3,3.53E2,5.5E1,2.53E2,2.5E1,3.1E1,1.36E2,1.8E0,1E0,1.59E2,1E1,6.1E1,8E0,3E0,5E0,3.41E2,1E0,4.6E2,1E0,7.45E2,4E0,1.2E1,7.5E0,1.8E1,1E1,3.41E2,1.6E1,4.5E1,8E0,1E0,1.01E2,7E0,2E1,2.81E2,7.03E2,1.015E3,-5.8520038E-2,-4.0064666E-2,-5.6797888E-2,-6.356284E-2,-5.1327106E-2,-5.6457203E-2,-6.0672145E-2,-4.0044278E-2,-3.7340194E-2,-2.7416518E-2,-4.5352537E-2,-4.0762123E-2,-3.7176337E-2,-4.474483E-2,6.057095E-2,-3.5643313E-2,-3.45662E-2,-2.960132E-2,1.0991266E-2,-5.1172383E-2,-2.2973252E-2,-2.7722789E-2,3.4796257E-2,-4.8667856E-2,-1.5558839E-2,-2.1139158E-2,1.1322967E-2,-3.2813348E-2,3.1219113E-3,-6.6449285E-2,3.2181945E-2,-3.917226E-2,-5.8374256E-3,-1.2031433E-2,-2.0974435E-2,-1.2173804E-2,-1.208301E-2,-4.7726534E-2,-2.3491003E-2,-1.4658252E-2,-1.1007435E-2,-2.1751544E-3,-1.0689437E-2,6.546173E-4,-1.0591771E-4,-7.061427E-3,-3.6977052E-3,1.6261416E-2,5.189346E-3,1.6543843E-4,7.172804E-2,2.9793052E-2,9.235459E-3,1.1710929E-3,4.055547E-2,1.1336537E-2,1.8074034E-2,3.8753495E-2,1.1181149E-2,1.8404445E-2,2.9841984E-2,5.0721485E-2,8.40297E-2,-3.175502E-2],"split_indices":[0,0,0,0,0,0,0,0,0,0,2,2,0,0,0,2,2,4,4,1,4,2,1,1,2,2,4,2,2,1,2,2,1,2,0,1,1,1,4,2,2,1,2,2,1,1,1,2,2,0,4,0,2,4,2,4,1,2,4,4,1,1,2,0,0,0,0,0,0,0,0,0,0,0,0,0,0,0,0,0,0,0,0,0,0,0,0,0,0,0,0,0,0,0,0,0,0,0,0,0,0,0,0,0,0,0,0,0,0,0,0,0,0,0,0,0,0,0,0,0,0,0,0,0,0,0,0],"split_type":[0,0,0,0,0,0,0,0,0,0,0,0,0,0,0,0,0,0,0,0,0,0,0,0,0,0,0,0,0,0,0,0,0,0,0,0,0,0,0,0,0,0,0,0,0,0,0,0,0,0,0,0,0,0,0,0,0,0,0,0,0,0,0,0,0,0,0,0,0,0,0,0,0,0,0,0,0,0,0,0,0,0,0,0,0,0,0,0,0,0,0,0,0,0,0,0,0,0,0,0,0,0,0,0,0,0,0,0,0,0,0,0,0,0,0,0,0,0,0,0,0,0,0,0,0,0,0],"sum_hessian":[3.9953582E4,1.8378498E4,2.1575084E4,6.39718E3,1.1981317E4,1.1943719E4,9.631366E3,2.4604949E3,3.9366853E3,7.5441675E3,4.43715E3,6.5969385E3,5.3467803E3,6.456647E3,3.1747192E3,6.6455133E2,1.7959435E3,2.168921E3,1.7677645E3,3.7116506E3,3.8325166E3,4.408571E3,2.8579203E1,5.7184844E3,8.7845374E2,3.425568E3,1.921212E3,2.7596353E3,3.6970115E3,2.7333762E3,4.4134305E2,2.5672342E2,4.0782788E2,1.6276685E3,1.6827501E2,5.1979474E2,1.649126E3,8.968234E2,8.709411E2,3.6384482E3,7.320254E1,3.8188708E3,1.364576E1,4.323421E3,8.514966E1,1.2785286E1,1.5793916E1,3.2891921E3,2.4292925E3,9.5026344E1,7.8342737E2,1.8130583E3,1.6125099E3,1.585273E3,3.3593912E2,2.7538613E3,5.773926E0,3.502691E3,1.9432057E2,1.4059008E3,1.3274756E3,4.2391296E2,1.7430094E1,2.1847404E2,3.8249393E1,1.4392456E2,2.6390332E2,1.2996455E3,3.2802292E2,2.7442663E1,1.4083234E2,4.5314145E2,6.665332E1,7.31654E2,9.1747205E2,4.9958212E2,3.972413E2,3.3377764E0,8.6760333E2,8.576964E2,2.7807517E3,4.6682806E0,6.8534256E1,9.669495E2,2.8519214E3,1.1534763E1,2.1109962E0,3.3088037E2,3.9925405E3,4.4040367E1,4.110929E1,1.2824445E0,1.1502841E1,2.561961E0,1.3231955E1,7.0237616E2,2.586816E3,8.42035E2,1.5872576E3,3.7966866E1,5.705948E1,2.4429716E2,5.3913025E2,4.514777E2,1.3615806E3,1.4028994E3,2.0961049E2,7.668788E2,8.183941E2,1.6404538E2,1.7189375E2,9.83256E2,1.7706055E3,2.2319076E0,3.542018E0,2.9446467E3,5.5804407E2,3.862035E1,1.5570021E2,1.3302583E3,7.564241E1,6.9106836E2,6.3640717E2,3.904295E2,3.3483444E1,1.4641906E1,2.7881885E0],"tree_param":{"num_deleted":"0","num_feature":"5","num_nodes":"127","size_leaf_vector":"1"}},{"base_weights":[-1.4326726E-1,1.076549E-1,-2.8405806E-1,3.770299E-1,3.403653E-2,-2.0649321E-1,-3.939749E-1,5.8404565E-1,3.3089724E-1,1.0191524E-1,-3.1772856E-2,-1.3456418E-1,-2.4545924E-1,-3.5811892E-1,-4.6079966E-1,7.117381E-1,5.123568E-1,3.7210605E-1,2.8020784E-1,1.5120782E-1,7.934913E-2,-2.3014061E-2,-1.3412853E-1,-1.0691488E-1,-1.5794344E-1,-2.2173835E-1,-2.660463E-1,-3.4567568E-1,-3.8780096E-1,-4.4633582E-1,-5.3808045E-1,5.982315E-1,7.57368E-1,4.019329E-1,5.736715E-1,4.2478302E-1,3.5440147E-1,2.9226294E-1,1.4312902E-1,1.4452673E-1,4.2000023E-1,1.5056656E-1,6.891122E-2,-6.3238904E-2,-6.6204014E-4,-3.204028E-2,-1.9173919E-1,-1.2257892E-1,-4.699628E-2,-1.3570699E-1,-1.892827E-1,-2.0889674E-1,-2.5108212E-1,-2.9213038E-1,-2.5738293E-1,-3.411738E-1,-4.3160924E-1,-4.0466982E-1,-3.5548452E-1,-4.47681E-1,-2.124378E-1,-4.256265E-1,-5.577333E-1,8.2312584E-2,4.2228628E-2,1.0166772E-1,7.103151E-2,4.7516085E-2,7.5135157E-3,2.339145E-2,6.0044296E-2,4.0952682E-2,1.00047044E-1,3.8027678E-2,2.996084E-2,2.6486004E-2,3.8203176E-2,3.98277E-2,5.272411E-3,1.3752519E-2,3.3711143E-2,4.9917117E-2,-1.34015605E-2,2.0850418E-2,-9.2415157E-4,6.218611E-3,1.36907995E-2,-3.490134E-3,-1.1803556E-2,-3.1271044E-4,3.7213057E-2,-4.464213E-2,4.987973E-3,-2.1274019E-2,-6.9079697E-3,-6.2229554E-3,-1.3716087E-2,1.1478346E-2,-7.084803E-3,-1.6992074E-2,-1.0673269E-2,-1.9562125E-2,3.215221E-3,-1.9261425E-2,-2.5478108E-2,-3.0033767E-2,-2.2477029E-2,-2.8903628E-2,-6.469977E-2,-2.6047936E-2,-1.691919E-2,-3.430418E-2,-4.558108E-3,-6.5735236E-2,-4.1202694E-2,-3.9459128E-2,-4.83527E-2,-3.1993333E-2,-4.22797E-2,-4.4539295E-2,-5.450393E-2,1.9230631E-3,-5.0380733E-2,-4.333559E-2,7.897507E-3,-5.6155648E-2,-3.295257E-2],"categories":[],"categories_nodes":[],"categories_segments":[],"categories_sizes":[],"default_left":[0,0,0,0,0,0,0,0,0,0,0,0,0,0,0,0,0,0,0,0,0,0,0,0,0,0,0,0,0,0,0,0,0,0,0,0,0,0,0,0,0,0,0,0,0,0,0,0,0,0,0,0,0,0,0,0,0,0,0,0,0,0,0,0,0,0,0,0,0,0,0,0,0,0,0,0,0,0,0,0,0,0,0,0,0,0,0,0,0,0,0,0,0,0,0,0,0,0,0,0,0,0,0,0,0,0,0,0,0,0,0,0,0,0,0,0,0,0,0,0,0,0,0,0,0,0,0],"id":12,"left_children":[1,3,5,7,9,11,13,15,17,19,21,23,25,27,29,31,33,35,37,39,41,43,45,47,49,51,53,55,57,59,61,63,65,67,69,71,73,75,77,79,81,83,85,87,89,91,93,95,97,99,101,103,105,107,109,111,113,115,117,119,121,123,125,-1,-1,-1,-1,-1,-1,-1,-1,-1,-1,-1,-1,-1,-1,-1,-1,-1,-1,-1,-1,-1,-1,-1,-1,-1,-1,-1,-1,-1,-1,-1,-1,-1,-1,-1,-1,-1,-1,-1,-1,-1,-1,-1,-1,-1,-1,-1,-1,-1,-1,-1,-1,-1,-1,-1,-1,-1,-1,-1,-1,-1,-1,-1,-1],"loss_changes":[1.4028467E3,2.830347E2,2.1678516E2,2.9062683E1,5.0081757E1,4.177118E1,2.5047852E1,4.733734E0,5.1333923E0,6.1267815E0,5.1006145E0,3.3723526E0,4.664795E0,2.3969727E0,3.8632202E0,5.708084E-1,2.208641E0,1.1365051E0,1.8228912E0,3.0496407E0,2.8053303E0,4.7160416E0,2.6318932E0,2.2517471E0,1.9526138E0,1.6434326E0,1.0939331E0,1.7241821E0,9.551697E-1,8.796387E-1,1.0309143E0,2.0836296E0,9.523697E-1,3.1222878E0,1.945221E0,2.594944E0,1.3590088E0,2.4479294E0,2.128241E0,2.2344513E0,1.8863506E0,4.4771843E0,1.5030241E0,2.9051738E0,3.1005561E0,5.5558133E0,7.234001E-1,1.6689167E0,1.9378799E0,1.631527E0,1.6564865E0,2.2942047E0,1.7015915E0,1.221199E0,1.0187683E0,2.5252686E0,7.7703094E-1,8.561859E-1,1.5389862E0,4.4317627E-1,1.3339856E0,3.836689E-1,2.3834229E-1,0E0,0E0,0E0,0E0,0E0,0E0,0E0,0E0,0E0,0E0,0E0,0E0,0E0,0E0,0E0,0E0,0E0,0E0,0E0,0E0,0E0,0E0,0E0,0E0,0E0,0E0,0E0,0E0,0E0,0E0,0E0,0E0,0E0,0E0,0E0,0E0,0E0,0E0,0E0,0E0,0E0,0E0,0E0,0E0,0E0,0E0,0E0,0E0,0E0,0E0,0E0,0E0,0E0,0E0,0E0,0E0,0E0,0E0,0E0,0E0,0E0,0E0,0E0,0E0],"parents":[2147483647,0,0,1,1,2,2,3,3,4,4,5,5,6,6,7,7,8,8,9,9,10,10,11,11,12,12,13,13,14,14,15,15,16,16,17,17,18,18,19,19,20,20,21,21,22,22,23,23,24,24,25,25,26,26,27,27,28,28,29,29,30,30,31,31,32,32,33,33,34,34,35,35,36,36,37,37,38,38,39,39,40,40,41,41,42,42,43,43,44,44,45,45,46,46,47,47,48,48,49,49,50,50,51,51,52,52,53,53,54,54,55,55,56,56,57,57,58,58,59,59,60,60,61,61,62,62],"right_children":[2,4,6,8,10,12,14,16,18,20,22,24,26,28,30,32,34,36,38,40,42,44,46,48,50,52,54,56,58,60,62,64,66,68,70,72,74,76,78,80,82,84,86,88,90,92,94,96,98,100,102,104,106,108,110,112,114,116,118,120,122,124,126,-1,-1,-1,-1,-1,-1,-1,-1,-1,-1,-1,-1,-1,-1,-1,-1,-1,-1,-1,-1,-1,-1,-1,-1,-1,-1,-1,-1,-1,-1,-1,-1,-1,-1,-1,-1,-1,-1,-1,-1,-1,-1,-1,-1,-1,-1,-1,-1,-1,-1,-1,-1,-1,-1,-1,-1,-1,-1,-1,-1,-1,-1,-1,-1],"split_conditions":[4.8E0,2.3E0,1.2E1,1.55E0,3.5E0,6.5E0,2.6E1,1.35E0,2E0,2.7E0,9.12E2,5.5E0,8.5E0,1.9E1,8.1E1,7E0,9E0,1.7E0,9.47E2,3.86E2,3E0,1.1E1,3.9E0,3.5E1,1.1E1,1.7E1,7E0,3.79E2,5.5E1,4.86E2,1E0,4.1E1,3.9E1,6E0,6E0,2.353E3,3E1,2.02E2,2.4E1,1.194E3,3.262E3,3.3E0,1.19E2,6.6E1,4.86E2,9.61E2,3.37E2,1E0,4.1E1,1.5E1,4.86E2,1.12E2,3.2E1,9.9E1,1.95E2,3.53E2,1E0,2.3E1,1.23E2,5.65E2,2.19E2,2.51E2,2.01E2,8.2312584E-2,4.2228628E-2,1.0166772E-1,7.103151E-2,4.7516085E-2,7.5135157E-3,2.339145E-2,6.0044296E-2,4.0952682E-2,1.00047044E-1,3.8027678E-2,2.996084E-2,2.6486004E-2,3.8203176E-2,3.98277E-2,5.272411E-3,1.3752519E-2,3.3711143E-2,4.9917117E-2,-1.34015605E-2,2.0850418E-2,-9.2415157E-4,6.218611E-3,1.36907995E-2,-3.490134E-3,-1.1803556E-2,-3.1271044E-4,3.7213057E-2,-4.464213E-2,4.987973E-3,-2.1274019E-2,-6.9079697E-3,-6.2229554E-3,-1.3716087E-2,1.1478346E-2,-7.084803E-3,-1.6992074E-2,-1.0673269E-2,-1.9562125E-2,3.215221E-3,-1.9261425E-2,-2.5478108E-2,-3.0033767E-2,-2.2477029E-2,-2.8903628E-2,-6.469977E-2,-2.6047936E-2,-1.691919E-2,-3.430418E-2,-4.558108E-3,-6.5735236E-2,-4.1202694E-2,-3.9459128E-2,-4.83527E-2,-3.1993333E-2,-4.22797E-2,-4.4539295E-2,-5.450393E-2,1.9230631E-3,-5.0380733E-2,-4.333559E-2,7.897507E-3,-5.6155648E-2,-3.295257E-2],"split_indices":[0,0,0,0,0,0,0,0,0,0,4,0,0,0,0,4,3,0,4,3,2,4,0,3,3,3,2,2,2,3,2,2,4,3,2,4,3,4,2,4,4,0,3,2,3,4,3,3,3,2,3,4,3,3,3,2,3,3,4,2,2,0,0,0,0,0,0,0,0,0,0,0,0,0,0,0,0,0,0,0,0,0,0,0,0,0,0,0,0,0,0,0,0,0,0,0,0,0,0,0,0,0,0,0,0,0,0,0,0,0,0,0,0,0,0,0,0,0,0,0,0,0,0,0,0,0,0],"split_type":[0,0,0,0,0,0,0,0,0,0,0,0,0,0,0,0,0,0,0,0,0,0,0,0,0,0,0,0,0,0,0,0,0,0,0,0,0,0,0,0,0,0,0,0,0,0,0,0,0,0,0,0,0,0,0,0,0,0,0,0,0,0,0,0,0,0,0,0,0,0,0,0,0,0,0,0,0,0,0,0,0,0,0,0,0,0,0,0,0,0,0,0,0,0,0,0,0,0,0,0,0,0,0,0,0,0,0,0,0,0,0,0,0,0,0,0,0,0,0,0,0,0,0,0,0,0,0],"sum_hessian":[3.9707867E4,1.42720205E4,2.5435848E4,3.0623901E3,1.120963E4,1.4914228E4,1.052162E4,5.559517E2,2.5064385E3,5.517789E3,5.691841E3,5.242088E3,9.67214E3,6.8516245E3,3.6699956E3,1.966859E2,3.592658E2,1.3790088E3,1.1274296E3,1.7309863E3,3.786803E3,5.2443E3,4.4754117E2,2.40427E3,2.8378179E3,4.499492E3,5.1726475E3,4.8366562E3,2.0149683E3,3.0971162E3,5.7287946E2,6.0442596E1,1.3624329E2,1.3096364E2,2.2830217E2,3.4110812E2,1.0379006E3,1.0352543E3,9.217531E1,1.690505E3,4.048135E1,4.8234674E2,3.304456E3,1.8725741E3,3.3717256E3,1.620098E2,2.8553134E2,1.9051708E3,4.9909924E2,1.6631074E3,1.1747106E3,3.1354526E3,1.3640396E3,1.2815071E3,3.8911404E3,4.60061E3,2.3604666E2,1.3163335E3,6.9863477E2,3.0784973E3,1.8618887E1,8.859493E1,4.8428455E2,2.491622E1,3.552638E1,1.7760107E1,1.18483185E2,1.0661879E2,2.4344843E1,1.738652E1,2.1091565E2,3.3396902E2,7.1390853E0,7.009472E2,3.3695346E2,7.961664E2,2.3908794E2,2.3224314E1,6.8951E1,1.6328555E3,5.7649467E1,3.550635E1,4.9749966E0,3.5378064E2,1.2856609E2,3.008791E3,2.956651E2,1.2353577E3,6.3721643E2,3.350562E3,2.1163738E1,2.6007082E1,1.3600272E2,2.4316391E2,4.236744E1,3.717793E2,1.5333915E3,6.363931E1,4.3545996E2,7.6037244E2,9.027349E2,1.1421337E3,3.257686E1,2.3180635E3,8.173891E2,4.7131927E2,8.927202E2,1.2722289E3,9.27817E0,3.7572664E3,1.3387404E2,4.5715596E3,2.90503E1,1.624196E1,2.198047E2,1.1724849E3,1.438486E2,4.60941E2,2.3769374E2,3.0132563E3,6.524099E1,1.0892356E1,7.7265315E0,8.7397385E1,1.1975455E0,4.7486844E2,9.416101E0],"tree_param":{"num_deleted":"0","num_feature":"5","num_nodes":"127","size_leaf_vector":"1"}},{"base_weights":[2.6002774E-1,5.0830442E-2,2.7492815E-1,-7.869815E-2,1.0010009E-1,2.2734475E-1,2.8632802E-1,-1.750468E-1,-2.1692533E-2,9.370255E-2,2.8906527E-1,1.9545953E-1,2.364612E-1,2.9319674E-1,2.1340533E-1,-3.9700797E-1,-1.5238954E-1,-5.324502E-2,9.4486736E-2,9.672677E-2,-2.2125663E-1,2.6010836E-2,3.696401E-1,2.0281458E-1,-1.2225069E-1,2.3524265E-1,5.99574E-1,3.0013904E-1,2.6756057E-1,2.1637775E-1,-2.0181535E-1,1.1944215E-2,-4.4192737E-1,-1.9689928E-1,-3.858673E-2,-1.0066819E-1,4.0239125E-2,4.3369272E-1,9.37078E-3,4.9244408E-2,1.1606197E-1,1.6351486E-2,-5.5178907E-2,1.8099727E-1,-5.72309E-2,5.790478E-1,2.0519188E-1,1.9780435E-1,3.6704805E-1,-3.380574E-1,7.6830715E-2,2.4203645E-1,1.5819289E-1,7.987898E-2,2.7395996E-1,2.7098414E-1,3.0754873E-1,2.711122E-1,2.033403E-1,2.3040839E-1,1.4040369E-1,-4.5483264E-1,4.1647786E-1,4.2167712E-2,-4.11484E-2,-3.1096807E-2,-6.319653E-2,-1.43460175E-2,-3.4968775E-2,-3.493011E-2,3.7983067E-3,-8.214938E-3,-4.173143E-2,1.085874E-2,-2.107088E-2,1.00449756E-1,